/model_weights/C3_reduced/C3_reduced/bias:0,"[ 4.3800347e-03  9.0841893e-03  2.2256922e-02 -2.9738930e-03
  1.5007378e-02  5.3340350e-03  1.4460204e-02 -6.5207045e-04
  2.0562593e-02 -1.1407317e-02 -6.5480871e-03  2.6638152e-02
  9.1852015e-03 -1.4028935e-02  1.1368416e-02 -8.7533658e-03
 -5.6835241e-03  1.0413965e-03 -4.5393473e-03 -9.6063456e-03
  1.4215197e-02  2.4670610e-02  2.4376253e-02  9.3439212e-03
 -1.1401247e-02  1.1931041e-02 -8.7299459e-03 -2.5922090e-02
  1.8216996e-02  1.0844992e-02  1.3845320e-02  2.3255842e-02
  2.3174431e-02  2.3658764e-02 -9.2000840e-03 -8.6929090e-03
 -6.6100690e-03  7.7235634e-03  8.1786560e-03  3.3737230e-03
  2.7049221e-02  1.8739032e-02  2.7102116e-02 -3.5960957e-02
  5.1243054e-03 -5.6043090e-03  1.3075734e-02 -5.4772344e-04
  3.2252048e-03  1.3719664e-02  1.7195860e-03 -3.0036489e-02
  1.2233398e-03  7.5165872e-03  5.0989417e-03  1.4277825e-02
 -8.8870423e-03 -4.3107979e-02  3.6336500e-02  1.4694203e-02
 -6.0843127e-03  1.4451756e-02  2.8789945e-02  2.2150971e-02
  1.3363796e-02 -1.8199172e-02  1.7829571e-02 -3.7370119e-02
 -8.1231510e-03 -1.8969586e-02  1.6694820e-02  6.8382057e-03
  4.5904932e-03 -1.2591530e-02 -6.4823516e-03  2.3924310e-02
 -1.3282102e-03 -6.7659458e-03  4.9464134e-03  1.5866110e-02
 -2.7474407e-02 -8.4991893e-03  7.9031993e-04  4.1376115e-04
  1.3161951e-02 -1.9609028e-02 -1.7595133e-02 -3.2345532e-03
  3.6833722e-03 -1.1340102e-02 -9.0698129e-04 -1.1210617e-02
 -3.1576271e-03 -2.7987611e-02 -4.8517431e-03  3.7518740e-02
  1.5509301e-02 -2.6292590e-02 -3.1085229e-03  1.4724259e-02
 -1.0866534e-02  1.6032184e-02 -3.4764956e-03  1.1119023e-02
 -1.0279429e-02 -1.9579364e-02  1.1241631e-02 -2.1950061e-02
 -2.3772549e-03 -1.7903933e-02  5.3525786e-04 -3.2930151e-03
 -1.4559004e-02 -1.2944559e-02 -1.1591130e-02 -9.6388804e-03
  3.4552894e-03  2.4510439e-02  4.6671514e-04  9.5163696e-03
 -5.7483730e-03  9.6417787e-03  4.9134190e-03 -6.7852773e-03
 -8.0518285e-03 -6.7630736e-03  1.4487691e-02 -9.4106374e-03
  1.5041341e-02 -2.1439141e-02  1.0917026e-02 -4.0207244e-04
 -2.0461362e-02 -7.2375149e-03 -2.6071522e-02  2.1093238e-02
 -1.9370956e-02  2.5589440e-02 -1.7499328e-02 -3.6510068e-03
  2.0441774e-02 -2.4078701e-02 -3.0909581e-03  2.4764964e-02
 -1.2479436e-02 -3.1302606e-03  1.3221295e-02 -1.7966195e-03
  6.1415336e-03 -8.4697185e-03 -1.5331392e-02 -7.2562560e-03
 -9.5691597e-03  2.1566685e-02 -1.5098036e-02  4.4892826e-03
 -2.5560083e-02  3.2660779e-02 -5.8107325e-03  2.6513524e-02
 -4.3014809e-03  3.8670395e-03 -4.8908312e-04  4.5417468e-03
  3.2220616e-03 -1.6296556e-02 -7.6247049e-03  2.9186409e-02
 -3.9582845e-02  1.5912699e-02 -1.8479945e-03  1.8683787e-02
 -2.5647741e-02  2.2393644e-03 -1.3813212e-02  1.6158124e-02
 -9.8419962e-03  2.0844624e-03 -3.7378829e-04  2.7352001e-03
  1.3547432e-02  4.5695137e-03 -2.3583688e-04  1.4681539e-02
 -1.2002582e-02  1.9677784e-02  4.0786881e-02 -1.0784854e-02
  1.1754349e-02 -1.1039314e-02  1.4013994e-02 -3.1027612e-03
  1.1261485e-02  3.8280853e-03 -1.4614783e-02 -5.7017765e-05
  1.4994329e-02 -9.0891542e-03 -1.7233930e-03 -1.1182175e-02
 -2.4303726e-03 -7.0005562e-03 -1.4330530e-02 -4.9725105e-03
 -1.2967781e-02 -1.5059910e-02 -2.8792400e-02 -1.0796731e-02
  5.3771283e-02 -3.5181846e-03  8.9750318e-03  2.6304310e-02
 -9.9958209e-03  8.0366777e-03  1.0089606e-02 -2.1687014e-02
  1.6212303e-02 -1.6143493e-02 -1.0939988e-02  1.7368511e-03
  6.4212498e-03  9.7749457e-03  3.8865399e-02 -3.8592516e-05
 -2.0250615e-02 -1.5723895e-02  7.1640136e-03 -1.8151909e-02
 -2.4103487e-02 -1.0177990e-02  1.0363343e-03 -6.9664936e-03
 -1.2900887e-02  6.6109323e-03 -2.5647907e-02 -2.6355486e-04
  5.1950840e-03 -8.5683586e-03 -7.5166500e-03  1.0872296e-02
 -2.2262743e-02 -1.1945633e-03  6.1668465e-03 -1.6257258e-02
 -7.4147228e-03  2.1422198e-03 -3.8551148e-02  1.2607857e-02
 -9.1031278e-03  3.9977740e-04  1.8042495e-02 -6.2683057e-03
  5.5789715e-03  1.7536225e-02  2.4764614e-02  2.1947229e-02]"
/model_weights/C3_reduced/C3_reduced/kernel:0,"[[[[ 0.0089306   0.03507796  0.06059213 ... -0.02739589 -0.00060949
    -0.01495697]
   [ 0.05010263 -0.02159391  0.1040637  ...  0.01346467 -0.04055811
     0.09226941]
   [ 0.08226704  0.04008627  0.03119788 ...  0.05072709  0.0100273
     0.04189212]
   ...
   [-0.05538969  0.11722557  0.00776759 ...  0.0612132   0.00738514
    -0.00075238]
   [-0.0264641   0.05897621  0.091278   ... -0.05239022  0.02980597
     0.11755776]
   [-0.05973031  0.02094747  0.01568514 ...  0.09664146  0.01616404
     0.10321993]]]]"
/model_weights/C4_reduced/C4_reduced/bias:0,"[ 2.09643338e-02  1.57538280e-02  2.55283993e-02  2.45898496e-02
  6.91935129e-04 -1.30361272e-02  1.86247434e-02 -9.02403332e-03
  8.04434251e-03  4.85302042e-03 -4.61127348e-02 -6.73248526e-03
 -4.33661742e-03  2.13338714e-03 -1.32915303e-02 -1.05478857e-02
  1.14194285e-02  1.70067034e-03 -1.87705271e-02  3.05286758e-02
 -3.04509012e-04  1.07540768e-02  2.72251655e-05 -6.70174602e-03
 -2.77987700e-02  2.62698010e-02 -7.84863997e-03 -1.60978157e-02
 -7.15088425e-03  3.81058566e-02  2.82095699e-03  9.79049713e-04
  2.92257890e-02 -5.75349526e-03 -2.95872167e-02  2.93573551e-03
  1.94110367e-02  5.37482603e-03  1.06639070e-02  3.01559716e-02
  9.28140071e-04  5.18928804e-02  4.55994159e-02 -2.54375376e-02
 -1.15923844e-02  2.84065753e-02  3.31297331e-02  5.16954903e-03
  3.28748822e-02 -2.55562295e-03 -1.88308358e-02 -3.38283442e-02
 -1.74643118e-02  1.15356529e-02  2.99789594e-03  1.49578154e-02
  2.42202985e-03 -1.21898819e-02  7.81936850e-03  1.47828665e-02
  6.61325001e-04 -1.41464081e-02  1.20372027e-02 -8.11266620e-03
  4.12313128e-03 -1.28533859e-02  1.17059806e-02  1.48753505e-02
 -1.57111045e-02  1.75362022e-03  1.54914502e-02  1.24944665e-03
  1.33398781e-02 -2.09457986e-02  3.05042770e-02  8.73276222e-05
 -4.45549376e-03 -5.34286862e-03  4.93198307e-03  3.91450152e-02
 -1.41439224e-02 -2.44668629e-02  1.48079153e-02 -8.12894013e-03
  1.39932502e-02 -1.80545151e-02  5.33518475e-03  1.98804541e-03
  2.41710413e-02  6.73051085e-03  1.72268576e-03 -1.50894430e-02
  1.68204401e-02 -3.98379900e-02 -2.33523446e-04  1.12538859e-02
 -1.60391582e-03 -9.74784791e-03 -2.17030430e-03  1.78138632e-02
  1.16931861e-02  1.45448782e-02 -6.82689715e-03  1.46199521e-02
  2.07763258e-02 -3.35632749e-02  9.12446156e-03 -2.04283707e-02
  1.53795667e-02 -1.86873004e-02 -7.68022332e-03 -1.17162783e-02
 -2.43717246e-02  3.66866193e-03 -6.54861052e-03  1.51802097e-02
 -2.76639801e-03  2.39288658e-02 -2.36169109e-03  2.90127695e-02
 -3.97286527e-02  2.20398623e-02 -2.81768548e-03  1.35679776e-02
 -7.66575802e-03  2.24489961e-02  1.44844130e-02 -9.82453395e-03
 -2.63171876e-03 -2.31189914e-02  1.45890396e-02  2.02415660e-02
 -2.04094872e-02 -3.79074104e-02 -2.38760877e-02 -7.89281796e-04
 -2.05077138e-02 -1.53021356e-02  8.72380380e-03  1.18543552e-02
  1.88682098e-02 -1.23017589e-02 -1.19092013e-03  7.71016534e-03
  3.51756276e-03 -1.47348177e-02  3.89130879e-03 -8.84255674e-03
  1.20348260e-02  1.47718051e-03  5.47143398e-03 -3.86489485e-03
  9.29511525e-03  4.46739160e-02  3.95635841e-03  1.19423158e-02
 -3.19762640e-02  3.18113714e-02  1.92078613e-02  8.91361386e-03
 -2.42274664e-02 -2.56014476e-03  8.48753750e-03  3.62740159e-02
 -2.93574156e-03  1.08227681e-03  2.69440305e-03  1.73337702e-02
 -1.13306763e-02 -1.91710163e-02 -2.72634206e-03  1.01194065e-03
 -2.60576364e-02  3.32780299e-03  1.33774159e-02  3.50716896e-03
 -4.33151685e-02  1.09667107e-02  1.34150898e-02 -4.26155934e-03
 -6.14178274e-03 -3.20748687e-02  1.14951851e-02  2.24490985e-02
  3.16915498e-03  6.24493230e-03  3.55219543e-02 -1.35978404e-02
  1.70283800e-03 -2.47229468e-02  1.50129488e-02  1.53997000e-02
 -1.13298558e-02 -1.42562175e-02 -4.62901685e-03 -1.98805016e-02
  1.60240270e-02  1.22869806e-02  1.55545082e-02 -7.64163036e-04
  4.67458507e-03 -1.87169109e-03 -3.55805978e-02 -2.55999551e-03
  7.22039770e-03 -2.23527364e-02  1.18671414e-02 -2.07809568e-03
  3.17647830e-02  2.34334525e-02  2.17993632e-02  2.60345656e-02
  1.33340480e-03  2.64106225e-03  5.70831494e-03  7.54476106e-03
  8.74832552e-03 -2.10589555e-04 -3.10230609e-02  2.78990861e-04
  1.15941209e-03  1.56254228e-02  2.15156730e-02 -9.23964474e-03
  4.59915400e-03 -1.79490093e-02 -1.06182685e-02 -8.45671073e-03
  1.94677559e-03 -2.51506977e-02 -2.03112457e-02 -2.90198755e-02
  9.65037569e-03 -4.92322771e-03 -3.20423320e-02 -7.88723491e-03
  1.42758777e-02 -9.41689964e-03 -4.59705219e-02  4.28754231e-03
 -1.60590280e-02 -1.31259905e-02  1.85267031e-02 -6.30361435e-04
 -9.67381243e-03 -2.18542628e-02 -2.17847303e-02 -1.59850176e-02
  2.05298513e-02 -1.46434242e-02  2.39024833e-02  1.31479418e-03
  2.98835225e-02  1.84345096e-02  1.45490598e-02 -4.85419203e-03]"
/model_weights/C4_reduced/C4_reduced/kernel:0,"[[[[ 0.03784486  0.0209298  -0.04783823 ...  0.04954992 -0.00625044
    -0.05112297]
   [-0.0287715   0.01274624  0.05580515 ...  0.02072301 -0.04816887
    -0.0499752 ]
   [ 0.00581263  0.09938578 -0.01450225 ... -0.03256501  0.0352335
     0.00444056]
   ...
   [ 0.05077166  0.03385879 -0.03424935 ...  0.01006228  0.00473237
     0.0285852 ]
   [ 0.06848443  0.00740931  0.01290894 ...  0.03685581 -0.08053281
     0.05011859]
   [-0.01418421  0.0378691  -0.01284501 ...  0.04340661 -0.07101612
    -0.05654621]]]]"
/model_weights/C5_reduced/C5_reduced/bias:0,"[-4.55059968e-02  9.48685221e-03 -4.04995270e-02  8.74074101e-02
 -9.62406695e-02 -9.70602781e-02 -4.97623645e-02  5.01371361e-02
  4.83053289e-02  8.59206691e-02  6.43413439e-02 -4.76111509e-02
  4.80826497e-02  2.77203787e-02  9.03196037e-02  7.66189471e-02
  1.77231759e-01  6.78224564e-02  3.59655730e-02 -4.33585234e-02
 -1.82923228e-02 -6.99862391e-02 -3.50499898e-02 -1.08754583e-01
  4.12242152e-02 -1.31388560e-01  2.36203056e-02  1.31196603e-01
  2.86704618e-02 -6.42369017e-02 -1.24554813e-01 -4.38578762e-02
 -2.86022238e-02 -8.25327635e-02  1.53642982e-01 -8.56948867e-02
 -2.40511782e-02  3.18086222e-02  2.36524623e-02 -4.39633988e-02
 -4.47236672e-02 -8.79189298e-02 -5.05437255e-02  7.28090033e-02
 -2.23089755e-03 -1.65886506e-02  8.10025558e-02 -4.12769839e-02
 -6.50957227e-02 -8.81989524e-02 -5.18141091e-02  6.78428859e-02
  1.02261737e-01  5.09042777e-02 -5.10376133e-02 -4.75282110e-02
 -7.25125149e-02  6.27994835e-02  1.11196842e-02 -2.29737721e-02
  4.56375629e-02 -8.19208100e-02 -4.24490385e-02 -8.70483592e-02
 -1.06431857e-01  1.05612725e-01  8.54750872e-02  6.29575253e-02
  7.67382234e-02  1.27419494e-02 -2.17296332e-02  7.68127367e-02
 -4.70869914e-02  1.13051802e-01 -7.84532055e-02  1.97328757e-02
  3.85905802e-02 -1.12293558e-02 -4.63255420e-02 -2.59632971e-02
  4.58700731e-02  7.62988031e-02  2.35262066e-02 -7.01760873e-02
  3.71598937e-02  2.35148836e-02  9.66657698e-02  5.45367524e-02
 -4.13394487e-03  3.36494260e-02  3.43846940e-02  1.95627660e-02
  9.26254969e-03  5.20067103e-02  7.71806240e-02 -9.20474157e-02
 -1.00972101e-01 -9.89692062e-02 -8.68478864e-02  3.02238762e-02
  1.55593427e-02 -8.58119130e-03 -2.54131593e-02  7.36705661e-02
 -3.71651314e-02  1.13438092e-01  4.01410237e-02  9.70582142e-02
 -7.10251033e-02  1.19249217e-01  3.44002992e-02  9.69520509e-02
  5.48459962e-02  4.42636162e-02  7.09654912e-02  4.53467667e-02
 -1.12275556e-01  2.49231346e-02  1.53593674e-01  7.35440198e-03
  6.79951981e-02  1.30299360e-01  1.21835791e-01 -6.70165149e-03
 -9.31839570e-02  5.58750629e-02  1.21334128e-01  4.11147960e-02
 -1.39587484e-02  3.09074633e-02 -2.11262051e-02 -8.19041207e-02
  3.87883261e-02  4.18104343e-02  6.28802106e-02 -1.14555761e-01
  4.53422889e-02  1.55895334e-02  3.53176184e-02 -8.64048749e-02
 -6.44088089e-02  5.17367050e-02 -5.46597131e-02  5.38518652e-03
  7.64672905e-02  5.77731431e-02  1.97244883e-02  1.06171355e-01
 -7.96752796e-02  6.45617768e-02  9.64871123e-02 -7.47083277e-02
 -5.23745045e-02 -7.93836266e-02  8.61418992e-02 -4.21479009e-02
  1.09419795e-02 -4.77950610e-02  4.77205636e-03  1.10211849e-01
 -1.04899704e-02 -9.17753130e-02 -3.97893116e-02 -4.84116934e-02
 -4.09901589e-02  3.59391719e-02  7.16113532e-03  4.05362248e-03
 -1.47460565e-01 -8.42469260e-02 -1.12980299e-01 -1.62817221e-02
 -8.86306614e-02 -9.73272100e-02 -5.58893196e-02 -1.45050451e-01
 -1.36272676e-04  5.61108366e-02  4.17702412e-03 -1.11126624e-01
  4.34211418e-02  1.11478321e-01 -3.23001035e-02 -8.93524662e-02
 -4.16867323e-02 -7.42958710e-02  1.22891860e-02 -7.66468570e-02
 -6.94411844e-02  1.21033780e-01 -6.80143340e-03 -3.57130403e-03
  5.20662218e-03  9.49211419e-02 -7.71001056e-02 -9.83783752e-02
 -7.72972479e-02  1.50756035e-02 -5.53323701e-02  7.35779181e-02
 -8.65378678e-02 -1.17671818e-01  9.05522481e-02  8.45009461e-02
  3.48630548e-02  8.98703374e-03  5.30169755e-02  2.17975359e-02
 -8.71168673e-02  1.74024198e-02  3.29783857e-02 -5.15425317e-02
  1.17804520e-01  1.12086363e-01 -1.18991330e-01 -5.33555560e-02
 -2.55045816e-02  8.20717122e-03  9.08065066e-02 -5.68076186e-02
 -1.23812243e-01 -1.01706289e-01 -7.68818632e-02 -9.44201946e-02
  8.58882740e-02 -4.03774530e-02 -7.18744174e-02  4.60996181e-02
  8.07670653e-02  9.71978530e-02 -4.49727848e-02  3.55319190e-03
 -7.82412291e-02  2.67388709e-02  5.80686517e-02 -7.82781318e-02
 -1.03860073e-01  1.86084844e-02  5.96805029e-02  3.77661474e-02
  5.92771061e-02  1.21548280e-01  2.08713301e-03  4.10581417e-02
 -3.05837002e-02  3.35719623e-02  7.81438425e-02  1.07490040e-01
  7.92153999e-02 -7.62423202e-02  1.46942502e-02  6.56427667e-02
 -3.30884792e-02 -7.49560744e-02 -2.63238121e-02 -1.17044769e-01]"
/model_weights/C5_reduced/C5_reduced/kernel:0,"[[[[-0.02349276 -0.0232466   0.00362731 ... -0.00105682 -0.00907697
    -0.04029819]
   [ 0.04507015 -0.02320563 -0.03585918 ... -0.02333263 -0.01769183
    -0.04494412]
   [ 0.02023037  0.05031284  0.01098331 ... -0.01907423 -0.03455016
     0.02635879]
   ...
   [ 0.00273409  0.0306713  -0.02901256 ... -0.02864147  0.01978677
     0.03138953]
   [-0.00131965 -0.02436655 -0.00547042 ... -0.00238844  0.00584597
    -0.00799791]
   [-0.01931441 -0.01389418  0.0414871  ... -0.04537951 -0.02326055
     0.03136154]]]]"
/model_weights/P3/P3/bias:0,"[-0.00660453 -0.01859246  0.02043762 -0.00809445 -0.0063316  -0.01518293
 -0.00699307 -0.00399539  0.02819151  0.02269955 -0.00232573  0.03007752
 -0.00558441 -0.00306692  0.01778391  0.02141882  0.01596909  0.02306174
 -0.00361543 -0.00758885 -0.0258023  -0.02130009  0.02386878 -0.01491294
  0.04849675 -0.00074846 -0.03163626  0.00112844  0.02245017  0.00336983
  0.01665556 -0.03137429  0.01367636 -0.0075263  -0.00977351 -0.00235613
 -0.00812962  0.0028399  -0.0239041  -0.0091924  -0.00919647  0.02604229
  0.01238192  0.00502524  0.01999992 -0.02126881  0.00751773  0.0314879
 -0.01311232  0.01019264  0.0098835   0.01803383 -0.0107982  -0.00549394
 -0.00555679 -0.00878441  0.02636465 -0.0173862   0.02603394  0.01473192
  0.01019373  0.00156423 -0.02452148  0.0005162   0.02119525  0.01190302
 -0.00999419  0.02997944  0.00438938 -0.01329331 -0.01639318 -0.03412193
 -0.00335041 -0.02521072  0.00738935  0.01023868 -0.00919187 -0.00395928
 -0.01531398  0.03533285  0.00280273 -0.01637511 -0.00252461 -0.00763056
 -0.01441899  0.01703981 -0.01951707 -0.00259705 -0.01344606 -0.02956085
  0.01830706  0.01749038 -0.00710764  0.0194033  -0.00699038 -0.03275243
 -0.00153877 -0.00868878 -0.00258522 -0.00461502  0.05678374  0.01257963
 -0.01665351 -0.01927256 -0.00611776  0.0002445  -0.00096127  0.0028731
 -0.01072688  0.01701783 -0.01104883 -0.03156148  0.01918942  0.00525155
 -0.01513795 -0.03362681  0.01894957 -0.01409769  0.03764565 -0.00770134
 -0.01129664 -0.0004019   0.00538163  0.01554141 -0.01249798  0.01478385
 -0.00940773 -0.01896407  0.00529133 -0.02650965  0.00824115  0.03667521
 -0.02353179 -0.01658457  0.01474237 -0.00669964  0.03224881  0.02409963
 -0.01056143 -0.03452563  0.01502763 -0.01915086  0.01319196 -0.002177
  0.00047788 -0.00699594 -0.00846056 -0.01475626  0.01997977 -0.02654254
  0.00885489 -0.00345004 -0.0322575   0.01148952 -0.01663727 -0.03517838
 -0.01137014 -0.00446874  0.02435648 -0.00183311  0.0110372   0.01461805
  0.03185118 -0.03054998  0.02211843  0.02340916 -0.01361292  0.02516206
  0.00797799 -0.00424914 -0.00547152 -0.01239354 -0.04217453  0.01759047
 -0.04136795  0.02072615 -0.018585    0.04848725 -0.01687405 -0.01452498
 -0.02594014 -0.02051341 -0.01174714 -0.02413301 -0.0143226   0.0055015
 -0.00526077 -0.01209222  0.01648014 -0.01166679  0.02774945 -0.0051973
 -0.01546391  0.00339906  0.00619852  0.01846869  0.01587518 -0.04089745
 -0.00365341  0.03104553 -0.02482868 -0.00135309 -0.01607692  0.0473983
 -0.02647164 -0.04492455  0.00215852  0.00593385  0.01304911 -0.00192046
  0.00922296  0.01952976  0.00748344  0.0151337   0.01214092 -0.01406057
 -0.01139327 -0.02996634 -0.0054203   0.00777959  0.00179901  0.01639451
 -0.00328997  0.02421621  0.0080616   0.01855929  0.00992031 -0.0356487
 -0.00712324  0.03826911  0.00020195 -0.00196019 -0.01586769  0.02740559
 -0.01532539 -0.00264732  0.02663427  0.00226387 -0.0151486  -0.01988504
 -0.03118897  0.03971621 -0.04450536  0.00225849 -0.00093609  0.01325384
 -0.00197453 -0.01073242 -0.01345509 -0.03399701  0.00512648 -0.03434249
  0.02083818 -0.01768049  0.00601116 -0.02251482]"
/model_weights/P3/P3/kernel:0,"[[[[ 0.0119807  -0.04834931  0.01121828 ...  0.03180555 -0.00189405
    -0.04231891]
   [-0.03365963 -0.01137499 -0.0367712  ...  0.00201232 -0.02618411
     0.00189956]
   [-0.0091711  -0.0364844   0.02260507 ... -0.0381721  -0.03246464
    -0.01476197]
   ...
   [ 0.00678772 -0.04112628 -0.00266926 ...  0.02311564 -0.01320919
     0.00023219]
   [ 0.0014099   0.00643331  0.00327447 ... -0.00394597 -0.02134326
    -0.02966633]
   [ 0.03678923  0.00709898  0.05104779 ... -0.00629152  0.01638489
    -0.02104441]]

  [[ 0.00394571 -0.03594217  0.04880166 ... -0.00959316  0.00484936
    -0.03103185]
   [ 0.01796951  0.01255121 -0.01255949 ... -0.04627981 -0.01533525
    -0.00540999]
   [-0.03398767 -0.03589108  0.00319316 ... -0.03138466 -0.02244289
    -0.02327866]
   ...
   [ 0.0498863  -0.0148992  -0.01262255 ... -0.03352502  0.02275955
    -0.02333938]
   [ 0.0013903  -0.00446965 -0.01199551 ...  0.03727135 -0.01525812
    -0.03416955]
   [ 0.04566761  0.00168335 -0.0282901  ... -0.00832633  0.01484387
     0.03854172]]

  [[ 0.00209401 -0.0233224  -0.01211347 ... -0.02853145 -0.02977969
    -0.02467537]
   [ 0.01802455  0.01205474 -0.00503111 ...  0.00816628 -0.00876135
     0.02421088]
   [-0.01091156 -0.01563599 -0.01107933 ...  0.00960697 -0.02787655
     0.04152932]
   ...
   [-0.00678231  0.02279619  0.01049364 ... -0.01176291  0.02547454
     0.03597337]
   [ 0.00534117 -0.00863023 -0.03121311 ... -0.00475049  0.02838051
     0.01595711]
   [ 0.02801062  0.01598782 -0.00775956 ... -0.01131984  0.0318826
    -0.00141768]]]


 [[[ 0.01439877  0.01617777 -0.01069911 ...  0.03161634 -0.02162683
     0.03558952]
   [-0.02577025  0.02571594  0.03633614 ...  0.00691014 -0.03083036
     0.03103575]
   [ 0.00868921  0.00555884 -0.0063598  ...  0.02028987 -0.0195728
     0.03201804]
   ...
   [ 0.04720199  0.01772122 -0.03342021 ...  0.00978279 -0.00947268
     0.03653025]
   [ 0.02428667  0.0055115  -0.00188589 ...  0.03563143  0.01916755
     0.00116171]
   [ 0.0145826   0.02013972  0.0360612  ... -0.00517487 -0.03779663
     0.00873661]]

  [[ 0.01512309  0.00851369  0.03294548 ... -0.01163103  0.00434995
    -0.01726808]
   [-0.03464065  0.06046562 -0.02818949 ... -0.01942429  0.03449094
    -0.03840815]
   [ 0.02840563  0.01362787  0.0079425  ... -0.00745824 -0.0205999
    -0.00175639]
   ...
   [ 0.06240762 -0.03061992 -0.03159812 ...  0.02606895  0.02321642
     0.02809745]
   [-0.01525006  0.02280773 -0.02619832 ... -0.0244605  -0.01877277
     0.02320864]
   [ 0.01265211 -0.01938092  0.03716749 ... -0.03777521 -0.02554008
    -0.01841818]]

  [[ 0.00048679  0.00582906  0.01572273 ... -0.00761336 -0.02635202
     0.01057091]
   [ 0.0076026  -0.00157668 -0.00140874 ... -0.04040454 -0.03502174
    -0.02399262]
   [ 0.03241983  0.00244035  0.01758727 ...  0.01168657 -0.0044408
     0.03795622]
   ...
   [ 0.05322447 -0.03395688 -0.00756299 ... -0.01857398  0.02204706
    -0.01835345]
   [-0.00613843  0.03332408  0.00614183 ...  0.03160406  0.03739908
     0.01129609]
   [-0.01518918  0.02411322 -0.02110335 ...  0.01993293  0.01696987
     0.02887086]]]


 [[[-0.00553977 -0.00027837 -0.02596638 ...  0.02468113  0.03562122
    -0.00826334]
   [-0.01237111 -0.01731195 -0.01526044 ...  0.00823633 -0.00971912
     0.0008392 ]
   [ 0.00682107  0.01830058  0.02046839 ...  0.01736144 -0.01926438
     0.01590469]
   ...
   [-0.00642102 -0.01197972  0.00639961 ...  0.01721209 -0.0170093
    -0.00491744]
   [ 0.02858459 -0.00605812  0.02512802 ...  0.02826087  0.01094098
     0.01155854]
   [-0.01077102 -0.00177982  0.03667069 ... -0.02072807 -0.03296374
     0.02510058]]

  [[ 0.01502346 -0.03665513 -0.0090962  ...  0.02959069  0.02050424
     0.02269171]
   [ 0.03346604  0.02986744 -0.01158439 ...  0.01720712  0.01727856
     0.01543641]
   [ 0.04348472 -0.01229327 -0.01735562 ... -0.0310444  -0.03368597
     0.00448515]
   ...
   [ 0.02338668 -0.02561581  0.04723242 ...  0.02978726 -0.01966676
     0.02868855]
   [-0.02820584 -0.00534796  0.00457862 ...  0.0296428   0.0115671
    -0.00076754]
   [-0.00885551  0.02324976 -0.01509078 ... -0.0246479  -0.00695353
     0.037343  ]]

  [[ 0.02769687 -0.00489981 -0.01985556 ... -0.00623229  0.02273738
    -0.01658924]
   [ 0.02046173  0.00126295  0.00088783 ... -0.0229054  -0.01901192
     0.02491067]
   [ 0.03620125  0.04385434  0.01202261 ... -0.00126099 -0.00046693
     0.03461008]
   ...
   [ 0.0349979  -0.01778344  0.04005006 ...  0.00587031  0.02634061
     0.01302802]
   [ 0.02948506 -0.00052586 -0.01038237 ... -0.00736264  0.00854737
    -0.00217783]
   [ 0.004267    0.02964002 -0.03368295 ... -0.01939956  0.0147683
     0.02970855]]]]"
/model_weights/P4/P4/bias:0,"[-1.12994658e-02  1.75903626e-02  3.38184237e-02  1.56632643e-02
 -2.42128354e-02  6.88137859e-03  1.00468192e-03 -1.90521739e-02
  3.87884909e-03  1.90635081e-02 -1.17875757e-02  1.01694064e-02
  1.52574910e-03  1.07776467e-03  8.39974359e-03 -5.10452501e-03
 -1.65453758e-02  2.46061534e-02  3.83975520e-03 -2.14127004e-02
 -1.70442183e-02 -1.38264438e-02  1.66567117e-02 -1.31473681e-02
  3.89458612e-02  3.33529301e-02 -2.24132501e-02  1.07154893e-02
  3.69768292e-02  1.50209421e-03  6.65515196e-03 -2.52976511e-02
 -2.00475822e-03  3.20873014e-03 -9.83088743e-03 -3.33451964e-02
 -2.90477909e-02 -6.31566998e-03  1.52878044e-02 -7.39876973e-03
  1.57484971e-02  2.54819095e-02  1.20683536e-02 -4.53909626e-03
  1.63416453e-02 -1.01821441e-02  3.00578121e-02  2.50863153e-02
 -1.28316348e-02 -8.96048080e-03 -3.14913434e-03  1.19244438e-02
 -6.07965654e-03  1.96053530e-03 -1.10869482e-02 -1.71151236e-02
  1.84807251e-03  3.82779678e-03  4.55061719e-02 -3.33076529e-03
  2.10656039e-02  3.47373099e-03 -1.82649586e-02 -2.21571862e-03
  6.03031693e-03  1.31596662e-02  9.95340012e-03  2.63475347e-02
  7.14479771e-04 -9.33370925e-03 -1.79015268e-02 -8.88051058e-04
 -5.60782291e-03 -5.33992890e-03 -5.88826090e-03  1.71972979e-02
 -5.52947773e-03 -1.35112675e-02 -1.72267188e-04  7.64548592e-03
  7.49025028e-03  6.84949756e-03 -1.48150595e-02 -7.47850351e-03
 -1.40186138e-02  5.28730312e-03 -2.56959088e-02 -1.65377762e-02
 -2.41698548e-02 -3.56017612e-02 -2.15693451e-02  1.18916100e-02
  1.82152551e-03  1.68291498e-02  3.96696851e-03 -3.59604359e-02
 -1.83742270e-02  1.17835226e-02 -2.27339268e-02  1.14024580e-02
  5.07924259e-02  3.65236700e-02 -2.29506288e-02 -9.75771714e-03
 -2.20999122e-02  7.54039688e-03  1.88740119e-02 -1.70961488e-02
 -2.07769293e-02  1.28934234e-02 -1.59486197e-02 -2.00417396e-02
  2.92306207e-02 -1.41523005e-02 -1.19924126e-02 -2.66230796e-02
  2.04266030e-02 -8.94773286e-03  1.98838897e-02 -6.98129460e-03
  2.17790138e-02  1.06441192e-02 -1.08789606e-02 -1.42699445e-03
  3.67141864e-03 -1.41467201e-03  4.10291692e-03 -5.33838873e-04
 -1.32540120e-02 -6.99603418e-03 -6.77270768e-03  4.10808846e-02
 -1.86308566e-02 -2.36393232e-02 -5.47210174e-03  1.92529913e-02
  1.44732483e-02  9.96621978e-03 -9.82663408e-03 -1.96295753e-02
  3.67522091e-02 -1.14322472e-02  1.76575910e-02  7.55614694e-03
  1.88172869e-02  1.08684944e-02  6.69007935e-03 -1.40387602e-02
  1.85326170e-02 -3.65038472e-03 -2.51397537e-03  1.01920664e-02
 -1.67128518e-02 -1.31170610e-02 -3.05234231e-02 -3.35105322e-02
 -9.53274686e-03  2.84030326e-02 -7.70010939e-03 -1.02134154e-03
 -1.93220808e-03  4.12893901e-03  1.53782982e-02 -1.65352225e-02
  1.51988734e-02  1.92805491e-02 -1.44545287e-02  3.41833085e-02
 -1.59222241e-02  5.05083287e-03 -2.72528995e-02 -6.46826532e-03
 -2.47438923e-02  9.14851204e-03 -4.49970067e-02  2.19487380e-02
 -1.56902652e-02  3.99861634e-02 -3.44307348e-02 -3.14770341e-02
 -3.65204550e-02 -7.97833898e-04  1.23207057e-02 -1.37829008e-02
 -7.30817614e-04  1.14740832e-02 -3.26465466e-03 -7.53876241e-03
  1.49011072e-02  1.19019756e-02  1.35893165e-03 -1.28587279e-02
 -9.02069733e-03 -2.29408033e-02 -1.27313090e-02 -2.07647565e-03
  4.32572281e-03 -3.23530436e-02 -7.43553648e-03  1.70697235e-02
 -2.16333289e-02 -1.72006730e-02  1.78023547e-05  1.84119195e-02
 -2.47773994e-03 -7.03709479e-03 -3.88953136e-04 -1.22522907e-02
  8.00690707e-03  4.87182802e-03  7.30477041e-06 -7.48200400e-04
  1.07845506e-02  7.06219394e-03  1.24293361e-02 -5.29842684e-03
  9.30217851e-04 -7.20198732e-03 -1.83556520e-03  2.11923346e-02
  1.59947034e-02  1.64699946e-02 -2.36602873e-03  7.32227555e-03
 -5.84962405e-03  1.77384112e-02 -3.58177233e-03 -4.62074019e-02
 -5.89697249e-03  4.87077869e-02 -6.27284870e-03 -1.87864155e-02
  6.07345602e-04 -3.30816722e-03 -1.66330189e-02 -1.45418346e-02
  1.91792548e-02  2.02444606e-02 -3.36804986e-02 -1.52674345e-02
 -1.82488114e-02  4.64335270e-02 -2.08323617e-02  1.09481858e-02
  7.49647245e-03 -3.24113993e-03  2.79270438e-03  1.52064981e-02
 -8.40000901e-03 -4.81576137e-02  1.94857325e-02 -1.54530257e-02
  1.34400260e-02 -1.84385888e-02 -5.33659058e-03 -8.69669393e-03]"
/model_weights/P4/P4/kernel:0,"[[[[-3.85717563e-02  2.83771511e-02  2.11280677e-02 ...  2.67346632e-02
     2.41382346e-02  7.68239331e-03]
   [-3.10860276e-02 -2.83901412e-02  3.39598358e-02 ... -1.18886651e-02
    -4.22247723e-02 -4.40747626e-02]
   [ 3.81896980e-02 -2.08172742e-02 -1.26331737e-02 ... -4.44057630e-03
    -1.18134851e-02 -9.71295778e-03]
   ...
   [ 6.24986086e-03  1.01904878e-02 -1.12147266e-02 ...  1.55125903e-02
     4.07825643e-03  1.51838139e-02]
   [-7.65676610e-04  1.47207743e-02  2.57082786e-02 ...  1.42837334e-02
    -1.38365326e-03  6.50403963e-05]
   [ 3.94440554e-02 -2.75070928e-02 -2.40664859e-03 ... -3.21815498e-02
    -1.57832727e-02  1.04788842e-03]]

  [[ 3.05100884e-02  1.68482158e-02 -9.50014405e-03 ...  1.79809798e-02
     4.30761138e-03 -5.45320511e-02]
   [ 2.09432710e-02  2.15479545e-02 -3.79572064e-02 ...  2.31637675e-02
     4.30520484e-03 -4.98344600e-02]
   [-8.53314268e-05 -2.96016950e-02 -1.78323884e-03 ...  6.51608780e-03
    -2.37742718e-02 -6.67866319e-03]
   ...
   [-1.45716919e-02  1.89375132e-02  3.52235362e-02 ... -3.34597705e-03
    -3.07645760e-02 -1.93763543e-02]
   [-1.75669771e-02  5.46647646e-02 -2.72937603e-02 ...  2.45018546e-02
     2.38323305e-02  3.39668244e-02]
   [ 1.85547527e-02 -1.51872251e-03 -1.66558940e-02 ... -1.99673958e-02
     1.03681432e-02 -2.76550408e-02]]

  [[-3.67044620e-02  1.03778532e-03  1.16812438e-02 ...  1.63995270e-02
     3.40421428e-03 -2.48859334e-03]
   [-4.98733968e-02  1.02453241e-02  1.75005551e-02 ... -2.93991193e-02
     8.36096704e-03 -3.10873277e-02]
   [ 1.87363569e-02 -1.31405285e-03  4.02069837e-03 ...  2.13958994e-02
    -1.72318649e-02  7.82630814e-04]
   ...
   [-3.30632143e-02  2.12333016e-02 -3.13151963e-02 ...  2.38818070e-03
     8.49516783e-03 -2.83277277e-02]
   [-1.59485382e-03  5.44309709e-03  6.63603423e-03 ...  3.35158082e-04
     8.29472486e-03  1.29745612e-02]
   [-9.70632769e-03  7.24892877e-03  4.21828330e-02 ... -2.24966500e-02
    -5.18551655e-03  1.00984471e-02]]]


 [[[-2.60492396e-02  1.36321364e-02 -3.26202326e-02 ... -1.25546614e-02
    -1.31834988e-02  1.83773283e-02]
   [-5.56511134e-02 -1.51686268e-02 -2.59373933e-02 ... -8.86770722e-04
    -1.28102619e-02 -3.82177979e-02]
   [ 8.11284757e-04 -2.16331030e-03  2.98325028e-02 ... -1.52209084e-02
     4.25083051e-03 -5.25762737e-02]
   ...
   [ 3.77359381e-03  4.16244678e-02  4.71434509e-03 ...  1.11448523e-02
     3.20909917e-02 -4.06018794e-02]
   [ 5.08256163e-03  9.61154513e-03  4.79619205e-02 ...  9.50768217e-03
    -2.19089873e-02  6.98381616e-03]
   [-1.56275667e-02  1.35662248e-02  8.07625894e-03 ... -4.66609979e-03
    -1.11077465e-02  2.20899656e-02]]

  [[-4.73438855e-03  1.55570041e-02 -3.55341774e-03 ...  1.89367514e-02
    -8.81791674e-03 -1.61968116e-02]
   [-2.40529850e-02 -1.68132596e-02 -1.76473148e-02 ...  1.71330199e-02
     3.75065021e-03 -4.53781709e-02]
   [ 1.49721251e-04  1.96434949e-02 -7.07538240e-03 ...  1.20779220e-02
     2.80392542e-02 -3.50044146e-02]
   ...
   [-7.55677233e-03  1.92822460e-02 -2.02045999e-02 ... -1.76099874e-02
    -2.96044331e-02 -3.06168608e-02]
   [-2.82354048e-03  3.70843522e-03  6.76898798e-03 ... -2.44709775e-02
    -1.85336694e-02  4.54595201e-02]
   [-1.89032983e-02 -1.19913500e-02  9.27461684e-03 ...  4.10668412e-03
    -3.00019905e-02  2.44019646e-02]]

  [[-5.52261900e-03  1.03049520e-02 -1.47742182e-02 ... -3.15731615e-02
     1.71728935e-02 -1.81772988e-02]
   [-2.06462406e-02  6.66834135e-03 -3.88811827e-02 ... -1.40907615e-02
    -2.43554618e-02 -7.49439117e-04]
   [-3.44785862e-02  8.45373957e-04 -1.76060002e-03 ... -2.79255956e-02
    -1.04571627e-02  8.07493739e-03]
   ...
   [-2.24676472e-03  5.85504342e-03 -1.98562499e-02 ... -1.47545263e-02
    -3.18544288e-03  9.72038601e-03]
   [ 3.54374573e-02 -3.31655182e-02 -1.84388645e-02 ...  3.73543203e-02
    -1.58287641e-02  1.28949592e-02]
   [-2.14822590e-02  1.16704842e-02  4.77977097e-02 ...  2.87596937e-02
     9.76967718e-03  2.49173269e-02]]]


 [[[-3.24383415e-02 -4.05660607e-02  2.62149200e-02 ... -1.17702726e-02
    -2.34545562e-02 -4.32484932e-02]
   [-1.60061195e-02 -2.39263475e-02  2.43623778e-02 ... -3.33452560e-02
     1.66358780e-02  9.90352128e-03]
   [-2.70957798e-02  1.79589342e-03 -4.06374261e-02 ... -1.24407848e-02
    -4.93721776e-02  1.04956767e-02]
   ...
   [ 1.36931725e-02 -1.13831935e-02  2.42085941e-02 ... -1.34537797e-02
    -1.87928025e-02  2.31227595e-02]
   [ 1.34110707e-03  6.79309480e-03  3.56190279e-02 ...  1.55881755e-02
    -6.28446322e-03  1.92214455e-02]
   [-1.29477577e-02  2.06209105e-02  6.79072319e-03 ...  1.16739599e-02
     1.58165097e-02 -1.79494154e-02]]

  [[-3.49335670e-02 -2.38263402e-02  9.17682424e-03 ... -6.26150239e-03
     4.72787470e-02 -3.24376486e-02]
   [-2.43932959e-02 -5.45351533e-03 -3.37325558e-02 ... -3.63792032e-02
     1.28159961e-02  1.54156927e-02]
   [ 2.18589399e-02  2.14464515e-02 -7.20707420e-03 ...  2.28224173e-02
    -3.28280102e-03 -2.29967269e-03]
   ...
   [-1.92563441e-02  1.59321763e-02 -1.79475155e-02 ... -3.80784012e-02
    -1.56048150e-03 -2.09426433e-02]
   [-4.45158174e-03 -1.92374587e-02  1.95820406e-02 ...  3.63881141e-02
    -3.34448903e-03 -2.76274420e-02]
   [ 3.07954103e-02 -1.00144884e-02  1.19022401e-02 ... -3.90999094e-02
     2.35991646e-03 -1.10424506e-02]]

  [[ 1.13883847e-02 -3.30078043e-02 -9.02300607e-03 ... -3.72316614e-02
     1.58348344e-02 -1.58677269e-02]
   [-3.37547287e-02  1.28305275e-02  2.07045954e-02 ... -2.14937273e-02
    -2.07850821e-02 -1.34523492e-02]
   [-1.83350611e-02 -1.81284156e-02 -3.41193378e-02 ... -2.16614939e-02
    -2.54526194e-02  1.37006966e-02]
   ...
   [-1.73591617e-02 -1.91688407e-02  1.55914836e-02 ...  2.42367629e-02
     3.41189168e-02 -2.12984439e-02]
   [-1.91870928e-02  5.05852187e-03 -1.87669545e-02 ...  6.21302985e-03
     3.85865085e-02  1.88608258e-03]
   [-9.15993412e-04 -3.77326012e-02  2.45435350e-02 ... -3.30903642e-02
     8.05616437e-04  3.18592861e-02]]]]"
/model_weights/P5/P5/bias:0,"[ 2.93171667e-02  4.20988537e-02  2.25867778e-02  5.06988727e-02
 -9.26142745e-03  4.86026928e-02 -1.29512912e-02 -2.68404577e-02
 -5.48340157e-02 -1.26478812e-02  7.04687322e-03 -2.16484759e-02
 -4.36346903e-02 -3.45637761e-02 -3.78919430e-02 -5.28779346e-03
 -1.69195291e-02 -1.19553844e-03 -4.31041606e-03 -8.42412375e-03
 -2.66371034e-02  4.42662202e-02 -3.71671505e-02 -5.45306727e-02
  2.28402894e-02  5.74951507e-02 -6.94072014e-03  6.05496317e-02
 -3.16848867e-02 -3.40379067e-02  6.13680622e-03  1.22056706e-02
 -5.59187941e-02  3.62389833e-02  1.85605441e-03 -3.13345715e-02
 -4.66828011e-02 -1.51940510e-02  1.44199459e-02  6.59265444e-02
  3.33239622e-02  2.41883229e-02  1.71276890e-02 -1.42998679e-03
  1.10005373e-02  1.22519564e-02  3.30667570e-02  6.63658902e-02
  1.57349668e-02 -6.32346198e-02 -2.28145551e-02 -6.06243908e-02
 -2.43042130e-02  8.60550627e-03 -9.93843656e-03  2.16655284e-02
 -6.71214685e-02  3.77605967e-02  1.77856758e-02 -1.15223834e-02
  4.06509191e-02  2.29753111e-03  5.53579535e-03  1.25484657e-03
  4.68518361e-02 -4.24209088e-02  7.61386380e-02 -6.20020777e-02
 -2.68553710e-03  1.77867967e-03  1.24198338e-02  7.24754110e-02
 -2.14007188e-04  2.17994545e-02 -3.88067514e-02  2.19285563e-02
  2.25815419e-02 -2.02891715e-02  3.80525589e-02 -6.26543816e-03
  1.00318678e-01 -4.53253649e-03 -3.81043553e-02 -1.00852121e-02
 -3.31362896e-02  8.59694649e-03 -5.23777157e-02 -3.36341970e-02
 -1.90529842e-02  1.30782148e-03 -3.87388170e-02  7.16014300e-03
  1.12728151e-02  2.57234108e-02  4.55733575e-02  2.02536825e-02
 -2.71770246e-02 -3.31182196e-03 -4.18336689e-03 -5.80385793e-04
 -2.40572039e-02 -3.67717817e-02 -2.03405991e-02  3.16784419e-02
  5.47345914e-02  3.87238245e-03  2.96970494e-02 -3.75608653e-02
  6.23096041e-02  2.44891029e-02  5.15876687e-04  1.34545360e-02
 -8.88027716e-04 -5.37062250e-02  5.93835004e-02  2.40270253e-02
  6.44018725e-02 -4.21091020e-02 -1.14568919e-02  4.15006950e-02
  1.26213310e-02  9.24421698e-02 -7.51455203e-02 -3.65467556e-02
  5.86542077e-02  1.83297861e-02  1.08323945e-03 -6.14505541e-03
 -2.20023245e-02  3.62417810e-02 -5.50505817e-02 -3.38646099e-02
  3.56121548e-03 -6.12725243e-02 -3.75376791e-02  3.22613530e-02
  2.93895677e-02 -8.75516310e-02 -9.87997558e-03  8.76060314e-03
  7.50547498e-02  8.98471475e-03 -2.35330928e-02  3.33545208e-02
  2.93500796e-02 -5.15921565e-04 -2.64883414e-02 -3.82627770e-02
 -1.10342707e-02  3.88579629e-02  2.98908632e-03  8.38708207e-02
 -2.00362373e-02  2.87126079e-02 -2.82532834e-02 -4.76493016e-02
  5.70089836e-03  5.41892350e-02 -5.49296439e-02 -6.93430472e-03
 -1.85141005e-02  1.20245335e-04 -6.64947256e-02  4.73164096e-02
 -5.59405684e-02 -1.46294869e-02 -2.43120138e-02  6.05490208e-02
 -2.25765221e-02 -2.95633413e-02 -3.75431143e-02 -2.29726615e-03
  5.06848842e-02  2.31616870e-02 -7.49825733e-04 -6.84032030e-03
 -2.21336577e-02 -3.71933393e-02 -7.74800107e-02  2.04423182e-02
  7.08066719e-03  2.70694476e-02 -1.19131114e-02  2.02518348e-02
  3.43915597e-02  3.75144668e-02  2.66645290e-02  9.41860955e-03
  1.81735288e-02  2.22636759e-02 -1.63972490e-02 -3.63894142e-02
 -2.15944797e-02 -8.57320428e-02 -7.50508159e-02 -2.77604852e-02
 -2.91200411e-02  5.17355241e-02 -2.10700314e-02 -5.52844964e-02
  1.21398166e-01 -1.11018645e-03  2.03699712e-02 -2.44977754e-02
  1.02831714e-03  1.37252510e-02  1.76708121e-02 -2.56036557e-02
  2.85969954e-03  2.24408992e-02  4.96219192e-03  1.99274328e-02
 -4.50607985e-02 -2.07566377e-03 -2.71002967e-02  7.92131722e-02
  2.11853683e-02 -7.92830065e-03  4.37109731e-03 -6.45817956e-03
  1.52411843e-02 -3.99130620e-02  2.79127546e-02 -3.13849337e-02
 -2.55896021e-02  3.10280100e-02 -2.65361555e-02  1.11670103e-02
  4.33141403e-02 -8.85833241e-03 -4.14504576e-03  1.47878435e-02
  1.04283523e-02 -2.59064548e-02 -5.48911430e-02 -4.99987379e-02
  2.41043344e-02  1.55235538e-02 -6.72810897e-02  7.26425264e-04
  4.61587012e-02  4.00466882e-02  9.41545293e-02 -4.98620979e-02
  5.05467430e-02 -3.97504866e-02 -2.57204697e-02  3.91328745e-02
 -7.93304993e-04 -5.54983225e-03  1.99701767e-02  5.62133528e-02
  1.38107436e-02  2.81917006e-02 -4.25051637e-02  3.51718888e-02]"
/model_weights/P5/P5/kernel:0,"[[[[-5.39361825e-03 -1.59357283e-02  4.95161442e-03 ... -1.49997473e-02
     2.43240036e-02  7.01510860e-03]
   [-2.41148956e-02 -2.81967390e-02 -3.83368917e-02 ...  1.51421102e-02
     1.10406824e-03 -2.13992316e-02]
   [-2.99927313e-03  1.11163221e-02 -8.08189902e-03 ...  7.81517010e-03
    -2.18643378e-02 -3.82216386e-02]
   ...
   [-1.90060996e-02  3.96594033e-03  6.79121912e-03 ... -1.33222910e-02
     2.26309579e-02 -5.05818054e-03]
   [ 4.41395910e-03 -3.93476225e-02 -3.92373241e-02 ...  2.25165226e-02
     3.72287594e-02  2.82122362e-02]
   [ 1.97596326e-02  1.64134689e-02 -5.19092334e-03 ... -3.19874585e-02
     3.69801410e-02 -3.02019436e-02]]

  [[-2.73474995e-02 -2.79057724e-03  2.23243516e-02 ... -1.17370707e-03
     1.32150929e-02  2.23314371e-02]
   [ 3.29775587e-02  4.82447725e-03 -5.41462842e-03 ...  1.33816712e-02
    -2.17521116e-02 -2.40524784e-02]
   [ 3.29123326e-02  2.06637047e-02  3.07226693e-03 ...  2.67947987e-02
     2.57925373e-02  1.22814626e-02]
   ...
   [ 2.73483247e-02  1.17297918e-02  2.19623204e-02 ...  6.70465175e-03
     3.17835286e-02  4.03121012e-05]
   [ 2.63942536e-02 -2.84779258e-02 -6.92370813e-04 ...  3.15381847e-02
     2.43518874e-02  2.26648171e-02]
   [ 2.81389952e-02 -2.94757597e-02 -3.64552252e-02 ...  2.88571045e-02
     4.12198566e-02 -2.71557216e-02]]

  [[ 2.90692747e-02 -7.79839372e-03 -3.41366045e-02 ...  1.24914460e-02
     1.84348654e-02 -6.83341827e-03]
   [-2.74509285e-02 -1.07275334e-03 -2.06880253e-02 ... -3.44402306e-02
    -1.43021615e-02  6.36912184e-03]
   [-2.28427630e-02 -3.56424302e-02 -9.50971432e-03 ... -5.30671608e-03
    -1.23036159e-02 -1.78333949e-02]
   ...
   [-4.36035590e-03  8.14176048e-04  2.03320645e-02 ... -1.44832302e-03
    -5.67583088e-03 -1.39030190e-02]
   [ 3.03700138e-02 -1.84676505e-03 -2.55072154e-02 ... -4.63930145e-03
    -8.07566918e-04 -3.68571170e-02]
   [-2.13631243e-02 -2.81480886e-02 -6.42585242e-03 ... -6.31606998e-03
     1.17232520e-02 -2.49631237e-02]]]


 [[[-3.76708359e-02 -1.02007417e-02  2.40884162e-02 ...  2.51663197e-03
    -2.86839306e-02 -1.65635273e-02]
   [ 3.35914199e-03  6.17488427e-03 -4.27619480e-02 ... -1.21076992e-02
    -2.02204511e-02  3.13058309e-02]
   [-2.28953678e-02 -1.85572188e-02  1.05609586e-02 ... -1.14296908e-02
     3.63143086e-02 -2.33602580e-02]
   ...
   [ 1.89486668e-02 -2.12182980e-02  6.39673742e-03 ...  8.20916612e-03
     5.76580036e-03 -1.52380373e-02]
   [-2.51782630e-02 -3.00867036e-02 -1.98689550e-02 ... -1.73921827e-02
    -5.81387756e-03 -1.32208746e-02]
   [ 1.48149384e-02 -2.86676772e-02 -1.16221454e-04 ... -3.98239754e-02
     4.56095394e-03  5.09547768e-03]]

  [[ 5.54394163e-03  6.19745930e-04  9.16519377e-04 ... -3.82744968e-02
    -2.89919414e-02  1.05999364e-03]
   [ 3.72529514e-02  1.06446054e-02 -3.25197540e-02 ... -8.91629606e-03
     1.54102575e-02 -9.75759514e-03]
   [ 3.33173946e-02 -3.41054387e-02 -1.59704371e-03 ... -1.36762541e-02
     2.42222585e-02  1.67734679e-02]
   ...
   [ 7.51152541e-03  3.05143297e-02 -4.67704125e-02 ...  2.74007232e-03
    -3.54204252e-02 -1.84930488e-02]
   [ 3.19601446e-02 -2.80883089e-02 -2.05969401e-02 ...  3.87175125e-03
     2.94538755e-02 -3.75603177e-02]
   [ 3.10106110e-02 -2.53109671e-02  2.78905723e-02 ... -3.52718122e-02
     6.04100758e-03 -2.83763148e-02]]

  [[-2.32894234e-02  1.40355676e-02 -1.16046211e-02 ... -2.33270936e-02
     3.20363753e-02  6.84419554e-03]
   [ 1.93978176e-02  3.00180037e-02  6.35700650e-04 ...  1.82746165e-03
     1.87775735e-02 -7.42626563e-03]
   [ 9.99971200e-03 -1.51671860e-02 -3.34982909e-02 ... -2.24665068e-02
     1.61619466e-02 -1.19999098e-02]
   ...
   [-6.39034668e-03 -3.89376022e-02 -1.48169389e-02 ... -8.64048954e-03
     5.44317765e-03 -1.09581612e-02]
   [-3.47327031e-02  1.06837135e-02 -2.27496363e-02 ...  2.20349245e-02
     1.43398494e-02 -7.28993444e-03]
   [ 1.11508872e-02  6.47817645e-03 -2.95786858e-02 ... -1.19384071e-02
    -2.51606703e-02  1.74007528e-02]]]


 [[[-3.35044526e-02  1.41436402e-02 -3.61033231e-02 ...  2.59011239e-02
    -2.65858285e-02  1.60434656e-02]
   [ 1.64291468e-02 -1.77058149e-02 -6.09990768e-03 ...  7.12985313e-03
     3.50567792e-03  1.01374788e-02]
   [ 1.95093174e-02 -1.82924755e-02  1.28902623e-03 ...  1.20888290e-03
     4.47916659e-03  1.42227327e-02]
   ...
   [-2.62500811e-02 -2.44209990e-02 -1.54238092e-02 ...  1.33108618e-02
     2.43301112e-02 -1.40151018e-02]
   [ 2.65126638e-02  9.06526390e-03 -5.14424453e-03 ... -2.30120979e-02
     5.99789945e-03  4.90652258e-03]
   [-3.91633390e-03  9.96131264e-03 -8.42015445e-03 ...  1.36234937e-02
     1.32847354e-02  3.12333778e-02]]

  [[ 3.40118376e-03 -1.00488830e-02  1.15319220e-02 ...  1.03624407e-02
    -2.96299299e-03  8.62247217e-03]
   [ 4.61109448e-03 -4.86511458e-03 -5.14493557e-03 ...  2.28105504e-02
    -1.53882438e-02  1.40371090e-02]
   [ 5.55121480e-03  4.06444026e-03 -7.02943001e-03 ...  1.62965097e-02
     1.47362435e-02 -1.46800810e-02]
   ...
   [ 3.26484023e-03  2.79086456e-02  1.83551367e-02 ... -3.24056670e-03
    -2.34325416e-02 -3.09375860e-02]
   [-3.29632200e-02 -5.49211400e-03  5.63940685e-03 ... -1.26010282e-02
    -2.84628458e-02  2.11858489e-02]
   [-2.56728893e-03 -1.25813410e-02 -3.23854759e-03 ...  1.75343566e-02
     1.23847350e-02  1.33856498e-02]]

  [[ 3.77251371e-03  2.78651323e-02 -7.51495082e-03 ... -9.68108978e-03
    -1.63434148e-02 -7.55373435e-03]
   [-3.85276228e-02 -6.33608131e-03  2.86177918e-02 ... -3.71653102e-02
     1.74372904e-02 -2.34354250e-02]
   [-2.97483448e-02  1.00095142e-02 -3.86992656e-02 ...  3.57683958e-03
     1.77165587e-02 -1.68268736e-02]
   ...
   [ 1.81123056e-02 -2.92831734e-02 -8.13050568e-03 ... -1.58621259e-02
     7.06461584e-03 -3.90476733e-02]
   [ 1.35153141e-02  1.43047916e-02 -2.10743081e-02 ...  2.64494047e-02
    -2.42547803e-02 -1.05001479e-02]
   [-1.87052805e-02 -1.64424237e-02 -1.26431948e-02 ...  2.04694294e-03
     1.25674000e-02 -2.78690476e-02]]]]"
/model_weights/P6/P6/bias:0,"[ 1.97527595e-02  8.82900506e-03  4.43457887e-02  1.57713722e-02
 -3.20905098e-03  1.02536324e-02  1.11838831e-02 -1.29030363e-04
 -1.88101456e-02  4.37330781e-03  4.70418204e-03  6.30502077e-03
 -2.51912046e-04  7.80251296e-03 -4.45160287e-04 -1.18773831e-02
  6.46439497e-04  1.37572102e-02 -2.04981118e-02 -1.45571530e-02
  1.93754397e-02 -3.21886712e-03  1.45121198e-02 -2.77964938e-02
  1.13911256e-02  3.15075405e-02  3.24941752e-03  1.24807181e-02
 -1.57089457e-02  3.85335227e-03  1.63161550e-02 -1.24920327e-02
 -1.32453125e-02  3.38181853e-02 -1.77068021e-02 -1.76783856e-02
  7.75766140e-03 -5.06089255e-03  2.94021964e-02  2.86679715e-03
  1.55102033e-02 -3.98115581e-03  2.47127209e-02 -5.48271555e-03
  1.69423409e-02 -2.62650307e-02  1.76996104e-02  1.10426545e-02
  9.09428392e-03  7.47633399e-03  6.30232459e-03 -1.50336502e-02
 -2.44383868e-02  1.67314522e-02 -1.96965616e-02 -2.49726768e-03
 -2.97244685e-03  3.18757407e-02  1.98624227e-02  8.22586659e-03
 -3.50531959e-03 -2.38228682e-02  2.49069720e-03 -5.62608335e-03
  1.20697366e-02 -4.21566376e-03  2.67257765e-02 -1.20929256e-03
  1.14940805e-02 -3.42311198e-03  3.12374788e-03  1.24457628e-02
  1.67082308e-03  2.02636160e-02 -5.89092402e-03  2.48319935e-02
  6.54583191e-03 -2.54376070e-03  9.73898452e-03 -9.57297627e-03
  3.02853510e-02  1.38939535e-02 -1.29151940e-02  2.14577373e-03
  1.12159178e-02 -5.89969708e-03 -2.17673164e-02  1.15388799e-02
  1.00211352e-02 -1.22893937e-02 -1.51629383e-02  5.14628179e-03
 -1.27706658e-02 -7.28483265e-03  2.44026370e-02  7.05203647e-03
 -2.82160603e-02 -2.36123079e-03 -2.98991497e-03 -2.68613789e-02
  1.19369281e-02  1.78374385e-03 -2.04153787e-02  1.15324082e-02
 -1.03178369e-02  1.90689936e-02  2.40547191e-02  5.69748273e-03
  1.78857017e-02  7.62089482e-03 -6.00556668e-05 -5.84686268e-03
  7.62370043e-03 -8.05824436e-03  2.59644948e-02  2.07036198e-03
  1.30392099e-02 -2.19335454e-03 -1.63285260e-03  1.88819063e-03
  1.31333899e-02  1.03931129e-02 -1.71302836e-02 -5.39462920e-03
  6.03835983e-03 -1.48130273e-02  9.64166783e-03 -1.60094686e-02
  1.16406614e-02  1.83071326e-02  1.47147104e-02 -5.38744545e-03
  1.86535232e-02 -7.29778083e-03  8.83009471e-03  1.78050380e-02
 -4.15109936e-03 -5.62019879e-03  1.59889963e-02 -7.08836596e-03
  1.66694112e-02  1.12654353e-02  2.37353835e-02  1.44452536e-02
  7.66541855e-03  1.34197669e-03  1.12225311e-02 -1.04047609e-02
 -1.40998093e-02  3.21752280e-02  1.79724954e-02  1.04285032e-02
 -2.40055639e-02 -1.78257711e-02 -5.56380255e-03  9.39740054e-03
 -1.74085004e-03  2.83495374e-02 -1.08972779e-02 -3.79120582e-03
 -1.88466720e-02  2.39695609e-03 -7.43065588e-03 -6.90429180e-04
  2.56289076e-02  8.94104596e-03  1.34961922e-02  1.68244485e-02
  3.52041912e-03  1.86560787e-02 -1.92039590e-02  7.73205468e-03
 -3.05366982e-03  1.02206785e-02 -1.14851594e-02  4.89006611e-03
  3.30407992e-02 -2.16461569e-02 -3.90518233e-02  2.18591560e-02
 -1.17576607e-02  1.53276315e-02  2.31377035e-02  2.54629087e-02
  3.79865542e-02  2.66242530e-02  5.81483869e-03  1.11766048e-02
  5.88638196e-03  1.63933542e-02 -8.12299142e-04 -1.38729885e-02
 -1.22580556e-02 -4.44092005e-02  1.78522384e-03 -2.19402323e-03
  1.91141907e-02  3.69132380e-03  2.43419642e-03 -1.83282874e-03
 -9.66373738e-03  7.76784774e-03  2.43347902e-02 -4.32993285e-03
  1.41061330e-02  3.27169858e-02  2.26811622e-03  2.83383124e-04
  1.53621621e-02  1.53300017e-02 -6.52384013e-03  6.28522784e-03
  5.05031610e-04  2.05175560e-02 -7.89957494e-03  6.38899533e-03
  3.81168327e-03  1.54292677e-02 -4.73576831e-03  4.22979966e-02
  1.93802156e-02  4.31422563e-03  1.75443850e-02 -2.28995215e-02
 -8.33632704e-03 -9.11676325e-04  1.13154538e-02 -2.83586066e-02
  2.60568336e-02 -4.95200185e-03  1.89057495e-02  1.26579986e-03
 -1.44602149e-03 -4.93847439e-03  1.15239434e-02 -1.58775691e-02
  5.00292778e-02  3.49328271e-04 -4.44131717e-03 -1.14311501e-02
  1.44336829e-02  1.72169190e-02  3.39789093e-02 -2.40288861e-02
  2.57895570e-02  3.65610723e-03 -6.51244679e-03  3.23802903e-02
  1.26622466e-03 -1.61880832e-02 -1.34251062e-02  2.89006941e-02
  6.88658375e-03 -1.28112826e-02 -6.30927796e-04  2.09106542e-02]"
/model_weights/P6/P6/kernel:0,"[[[[-0.00209474  0.00126967  0.00078611 ...  0.00140569 -0.00557526
    -0.00197884]
   [-0.01599882  0.01387646  0.01713624 ...  0.00942129 -0.0030261
    -0.00246996]
   [-0.00619856  0.00725603  0.00168428 ... -0.01293019 -0.00905861
    -0.00720579]
   ...
   [ 0.00547508 -0.02840267  0.00392904 ... -0.01980545 -0.00130922
    -0.00698894]
   [ 0.00258445  0.00968457  0.0037404  ... -0.01690369  0.01530554
    -0.00366241]
   [-0.00812239  0.00984575  0.0139423  ...  0.01041208  0.00609339
     0.01930087]]

  [[ 0.00886094  0.02390182  0.0307761  ...  0.01740827 -0.00689397
     0.0085265 ]
   [-0.00306483  0.00398795  0.00696925 ...  0.00603649 -0.00310775
     0.00139775]
   [-0.02038983  0.00472158  0.00639848 ... -0.00812149  0.00050677
    -0.00185713]
   ...
   [-0.00178028 -0.01912084  0.01561313 ... -0.00906727 -0.01207454
    -0.00774083]
   [ 0.0028211   0.01927166  0.01089459 ... -0.01562914  0.00456399
    -0.01732242]
   [-0.01240835  0.00263651 -0.0070022  ... -0.0024313  -0.00841665
     0.0089502 ]]

  [[ 0.00319413  0.02024859  0.02436403 ... -0.02151176 -0.00298548
    -0.00266827]
   [ 0.00430018  0.01684235 -0.02340068 ... -0.01152713  0.01179298
     0.00631845]
   [ 0.0126084   0.01497042 -0.00700249 ... -0.01530476  0.01156332
    -0.01729059]
   ...
   [ 0.01002803 -0.01541624  0.00122497 ... -0.00747678 -0.00034449
    -0.00239971]
   [ 0.00165265 -0.00706273  0.01571624 ... -0.01965365 -0.00259259
     0.00102968]
   [-0.00542263 -0.00325199  0.02125484 ... -0.02899456  0.00545481
     0.0088662 ]]]


 [[[ 0.02018096  0.01966445 -0.0080916  ... -0.01863368  0.00818097
    -0.01318233]
   [-0.00436018 -0.01201887  0.00621736 ...  0.01790126 -0.01912248
    -0.00799908]
   [-0.01271965 -0.0052673   0.0111665  ... -0.00385357  0.01067009
     0.01201414]
   ...
   [ 0.00159264 -0.01842858 -0.00375776 ... -0.02549158  0.00497587
     0.00454094]
   [-0.0108391  -0.00328584  0.01927179 ... -0.01412566 -0.00166131
     0.01027543]
   [-0.01580643 -0.00537464  0.0192872  ...  0.00120925 -0.01165002
     0.01797776]]

  [[ 0.01558974  0.01513141  0.01188518 ...  0.00263624  0.01567513
     0.00052057]
   [ 0.01276772  0.00771996 -0.00109824 ... -0.00943098 -0.01444353
     0.00961772]
   [ 0.00338018  0.00942372  0.00866356 ...  0.00367665  0.01245866
    -0.00990091]
   ...
   [ 0.01100251 -0.01815707  0.01457332 ... -0.01559889  0.01247612
    -0.01707083]
   [-0.00296866 -0.00913939 -0.00752868 ... -0.01539133 -0.01314164
    -0.00352047]
   [ 0.01014224 -0.00223226  0.02210912 ...  0.01878666 -0.00279708
     0.00259731]]

  [[-0.00133785  0.01966645  0.01194672 ... -0.01838941 -0.01244936
     0.00987906]
   [ 0.00340647 -0.01591168  0.01275085 ... -0.00999448 -0.0121515
    -0.01022887]
   [ 0.00078389  0.01667383  0.00404261 ... -0.00372512 -0.00650176
    -0.01409214]
   ...
   [ 0.00320618 -0.00644465 -0.00180529 ... -0.00231116 -0.02128407
    -0.00927427]
   [ 0.00826235  0.00314899 -0.00245451 ...  0.00995476 -0.01662722
     0.00424086]
   [ 0.00108976 -0.00260084  0.03083896 ... -0.01537761 -0.01423452
     0.01426684]]]


 [[[ 0.02499251  0.01485597  0.01234704 ... -0.00558668 -0.0060901
    -0.00508747]
   [-0.01340157  0.02229227  0.00384706 ...  0.01184151  0.00538704
    -0.01604771]
   [-0.02451595  0.00943768 -0.0047316  ...  0.00178529  0.00809874
    -0.00851186]
   ...
   [-0.02265121  0.00067102 -0.00177843 ...  0.00014864  0.01515448
     0.01209088]
   [ 0.00395588 -0.00063083  0.00742937 ...  0.01193564 -0.00282934
    -0.01855079]
   [-0.01980441 -0.01040072  0.01737581 ... -0.01162082  0.00577706
    -0.01739531]]

  [[ 0.00827702  0.00697128  0.01156785 ... -0.01897495 -0.00903646
    -0.01673469]
   [ 0.01242565 -0.00751212  0.02030805 ...  0.01998773  0.01799657
    -0.01449229]
   [-0.01488125  0.00200636 -0.01014679 ...  0.00362327  0.00263504
    -0.01333252]
   ...
   [ 0.01912262  0.00764144  0.01065567 ... -0.02506501  0.00974344
    -0.00128697]
   [-0.00083291  0.0083578   0.00701966 ...  0.00177476  0.00769116
    -0.00648948]
   [ 0.00118195  0.00030048  0.02155183 ...  0.00597088 -0.00314114
    -0.00805878]]

  [[ 0.01983637  0.02279192  0.00415709 ...  0.01038354  0.00995449
     0.01295102]
   [-0.00761333  0.01324985 -0.00102137 ...  0.00028474  0.01736707
    -0.01381856]
   [-0.0125002  -0.01592658 -0.0011282  ...  0.00055096 -0.00200246
    -0.01481822]
   ...
   [ 0.00023503  0.00183193 -0.00562548 ... -0.00684322  0.00894613
     0.00826883]
   [ 0.02121748  0.00765012  0.02815776 ... -0.00830137  0.00780522
    -0.01999545]
   [ 0.01063351 -0.0100399   0.01191385 ... -0.0114768  -0.00276197
    -0.02024273]]]]"
/model_weights/P7/P7/bias:0,"[ 8.54925532e-03  2.27456875e-02  1.91219505e-02  1.46755269e-02
 -1.09087154e-02  2.52327211e-02 -5.88792143e-03 -9.66877677e-03
 -2.99852230e-02 -4.60999366e-03 -1.43446145e-03  1.23164123e-02
  6.24041446e-03 -9.17245820e-03  8.16080067e-03 -6.49356865e-04
 -1.97051093e-02 -9.10272589e-04 -4.81474726e-03 -3.20020169e-02
  1.77727211e-02 -3.28062847e-02  1.48571106e-02 -3.33296917e-02
 -7.23708794e-03  4.56948429e-02 -1.32832145e-02  1.30924350e-02
  5.90668013e-03  2.30116630e-03 -1.75344769e-03  8.98072030e-04
 -1.84435435e-02  1.64908431e-02 -1.48706511e-02 -2.34175995e-02
 -1.66384149e-02 -2.38993522e-02  2.97707915e-02  6.36054622e-03
  1.43785533e-02  1.68027915e-02  1.82503741e-02 -1.57673582e-02
  1.69582423e-02 -4.03227098e-03  1.48341274e-02  1.16753895e-02
  2.68348400e-02 -2.90144258e-03 -5.11277514e-03 -2.68776086e-03
 -1.76452026e-02  6.00875472e-04  1.02731613e-02  1.71125575e-03
 -1.18400818e-02  2.77853645e-02  6.64538145e-03 -6.88089617e-03
 -4.31888690e-03  1.64093059e-02  2.28177086e-02 -1.26992371e-02
  2.12510526e-02 -1.53277768e-02  1.02294106e-02 -1.51441764e-05
 -5.86437108e-03 -2.34538056e-02 -4.37740749e-03  5.18437428e-03
 -7.88701640e-04  6.84850849e-03 -1.25580905e-02  1.96302440e-02
  7.19763665e-03 -5.01896162e-03  6.40375633e-03 -1.03021199e-02
  2.35702191e-02  2.09609307e-02  6.60566334e-03 -8.13663285e-03
 -1.97564568e-02 -1.04731147e-03 -3.48257050e-02  1.30877970e-02
 -1.17908642e-02 -1.24287689e-02 -1.92941148e-02  3.74703668e-04
  4.79479367e-03  5.65022882e-03  6.35711709e-03 -2.10573003e-02
 -2.06916239e-02 -1.59181617e-02 -1.97854694e-02  4.67184093e-03
  2.45351437e-03 -6.50530390e-04 -1.91698056e-02  5.89892967e-03
 -1.86167862e-02  1.38846496e-02  1.15100453e-02 -1.77511608e-03
  6.48597674e-03  1.08315907e-02 -1.03952764e-02  4.74746292e-03
  1.40372729e-02 -1.87044814e-02  1.20448899e-02  6.53567666e-04
  1.15163634e-02 -2.08725724e-02 -7.25196488e-03 -5.00747934e-03
  1.00737764e-02  1.22147240e-02 -1.28986351e-02 -1.71816051e-02
 -4.52219415e-03  8.77824426e-03  1.53494510e-03  9.65740718e-03
 -1.96006633e-02  1.86045673e-02 -8.50973371e-03 -1.42702954e-02
  2.19929460e-02 -7.25424755e-03  8.00416048e-04  1.13312975e-02
  1.51706003e-02  1.55373360e-03  3.10763298e-03 -5.46609191e-03
  2.68823262e-02  8.72809812e-03  1.32359024e-02  1.79439187e-02
  1.98556017e-02  1.21529177e-02 -5.73092606e-03 -1.59058571e-02
 -4.57739597e-03  1.66498926e-02 -1.10318037e-02  3.64611601e-03
 -1.15619833e-02 -4.04553041e-02 -2.20862459e-02 -9.38872807e-03
 -1.64493099e-02  1.37183517e-02 -1.80872586e-02 -4.62031830e-03
 -2.90311072e-02 -1.03389770e-02 -2.06972249e-02 -2.35100761e-02
  9.12622456e-03  4.64717858e-03 -1.02940602e-02  6.87662140e-03
 -2.44610030e-02 -7.61925010e-03 -5.18248091e-03  6.39272807e-03
  1.20032309e-02 -6.11023465e-03 -1.95773356e-02  4.30517411e-03
  1.79524794e-02  6.10882044e-03 -4.34044302e-02 -4.61372780e-03
 -1.10379625e-02  1.83754899e-02  2.47159805e-02  3.24426871e-03
  2.13259477e-02  6.18611602e-03  4.93048225e-04  1.64118912e-02
  8.76584556e-03  1.30739650e-02  4.66706959e-04 -9.66430362e-03
 -1.90566182e-02 -2.83592585e-02 -2.32094452e-02 -1.12153711e-02
  5.72345080e-03 -2.14029234e-02 -1.10864425e-02 -1.27424474e-03
  8.21510050e-03 -1.56887975e-02  1.99159160e-02 -1.14991758e-02
  8.59200489e-03  2.71492936e-02 -2.07448960e-03 -1.78405400e-02
  2.11521424e-02  1.93108525e-02 -3.59918587e-02 -1.48975076e-02
 -1.49865001e-02 -1.01980958e-02 -8.96413403e-04  1.17497770e-02
  7.55452830e-03  2.96173058e-02 -1.29136918e-02  1.01594944e-02
  3.76309343e-02  1.38231739e-03  7.17677036e-03 -9.05480515e-03
 -2.88262814e-02 -6.44251145e-03 -1.74137279e-02 -1.40667213e-02
  1.37820477e-02  1.25399241e-02  2.94183232e-02 -9.06934787e-04
  6.92636054e-03 -1.64793674e-02 -8.23012553e-03 -1.26788830e-02
  2.36105472e-02 -1.59331523e-02 -1.64078996e-02 -1.89254433e-02
 -8.46138410e-03  1.40976598e-02  2.13799048e-02 -9.48292390e-03
  1.31183509e-02  2.43382552e-03 -3.89561430e-03  2.50519048e-02
 -1.22315735e-02 -1.09488992e-02  3.24464426e-03  2.80733146e-02
 -1.19514111e-02  8.01211409e-03  4.95300721e-03  2.42622495e-02]"
/model_weights/P7/P7/kernel:0,"[[[[-1.48068313e-02 -3.87730114e-02 -1.40337376e-02 ...  1.18768923e-02
    -3.46748121e-02  1.51362959e-02]
   [-7.59783713e-03 -7.25078443e-03  3.94134521e-02 ...  1.36428792e-02
    -1.08780367e-02 -1.59982089e-02]
   [-5.96004650e-02  1.77036021e-02  6.10288046e-02 ... -2.99700331e-02
     4.19084914e-03 -2.68025622e-02]
   ...
   [ 3.85839818e-03 -2.72027571e-02 -2.02423520e-02 ...  5.24057671e-02
    -2.44733635e-02  3.12795416e-02]
   [ 1.89171899e-02  7.19811954e-03 -2.60311235e-02 ...  2.14582076e-03
     4.54079546e-03 -3.58949304e-02]
   [ 2.04156563e-02  2.29010172e-02  2.73607555e-03 ...  2.27992684e-02
    -6.64267922e-03 -1.22442506e-02]]

  [[ 3.21533121e-02 -2.29392201e-02  4.21090797e-02 ...  3.11177247e-03
    -1.37030259e-02  4.10695188e-02]
   [-1.64410174e-02  3.62131409e-02  1.13190534e-02 ... -1.28116570e-02
     3.20923999e-02  4.02473882e-02]
   [-1.74755082e-02  6.98130718e-03  3.50431763e-02 ... -2.03250088e-02
    -1.88954454e-02 -1.50339287e-02]
   ...
   [-3.01718042e-04  1.89011975e-03 -1.95879210e-02 ...  2.01870203e-02
    -5.65130897e-02  5.59847616e-03]
   [ 1.41488686e-02  3.70579748e-03 -1.41624548e-02 ...  2.49342574e-03
    -1.07670138e-02 -3.72120440e-02]
   [-2.31974628e-02  3.68619747e-02 -3.52167971e-02 ... -1.27884988e-02
     1.50594139e-03  3.55182365e-02]]

  [[-1.61151998e-02  4.96838358e-04  6.49461895e-03 ...  6.77045609e-05
    -3.42561561e-03  1.82646587e-02]
   [-2.52886564e-02  3.60969305e-02  2.73180916e-03 ...  1.44901369e-02
    -2.53570918e-02  6.81141997e-03]
   [-3.70555231e-03 -1.96151566e-02  3.92163657e-02 ... -1.23971782e-03
     3.50492634e-02 -3.40180881e-02]
   ...
   [-4.07645898e-03  2.14943886e-02  2.25055194e-03 ... -3.89213022e-03
    -4.15716134e-02  3.23534533e-02]
   [ 5.60716679e-03  2.29660068e-02 -1.97790302e-02 ...  1.20849628e-02
     4.16799039e-02 -3.99604551e-02]
   [-5.06523484e-03  4.08828929e-02  3.03818882e-02 ... -4.64234874e-03
     4.84699458e-02  1.11702029e-02]]]


 [[[ 2.49369442e-02  6.93840161e-03  7.39720929e-03 ...  1.94181819e-02
    -9.05661471e-03  1.12895705e-02]
   [ 2.32956223e-02 -1.51427006e-02 -4.51326510e-03 ... -4.74156775e-02
     9.04523768e-03 -4.42682765e-02]
   [-8.94698221e-03 -2.30376124e-02  5.82005680e-02 ...  3.45944427e-03
     2.01623123e-02  1.31367473e-02]
   ...
   [ 2.31171772e-03  1.04674010e-03  1.73188094e-02 ...  6.42980039e-02
    -1.85332932e-02  4.56105806e-02]
   [-5.01203910e-02  9.23444144e-03  1.23097226e-02 ... -3.20108701e-03
     2.70638485e-02 -2.51434818e-02]
   [ 1.91099644e-02  1.63929199e-03  9.41238645e-03 ...  2.00788956e-03
    -1.12526584e-02  1.46021675e-02]]

  [[-8.12689716e-04 -2.12767050e-02 -2.32361965e-02 ... -6.59975503e-03
     2.96570659e-02 -5.24877105e-03]
   [ 9.29179310e-04  5.19056618e-02  9.30640195e-03 ...  3.91358556e-03
    -1.19691165e-02 -2.01145262e-02]
   [-5.23585156e-02 -2.31709275e-02  2.81110816e-02 ... -2.34917104e-02
    -6.64527854e-03  6.33322634e-03]
   ...
   [-4.95884055e-03 -2.76622493e-02 -3.75831127e-02 ...  2.10890137e-02
    -3.43814716e-02  2.38150954e-02]
   [-2.43160371e-02  3.80013511e-02 -2.20250860e-02 ...  5.54927392e-03
    -1.80049334e-02  1.57571100e-02]
   [ 1.15448218e-02  4.76355106e-02 -3.74949304e-03 ...  1.06829498e-02
    -3.30137461e-02  1.61803756e-02]]

  [[ 1.80890765e-02 -2.05585603e-02  2.11712103e-02 ...  3.72226089e-02
    -1.51977576e-02  2.79222578e-02]
   [ 1.94571037e-02 -8.07215832e-03  3.45717184e-03 ... -2.28979811e-02
     1.03670396e-02  2.95416284e-02]
   [ 1.40044745e-02 -3.76670458e-03  3.79646197e-02 ... -5.95826842e-03
     2.03680694e-02  1.94163118e-02]
   ...
   [ 5.40756201e-03  3.65721025e-02 -3.75786573e-02 ...  1.33689935e-03
    -1.18277371e-02  1.14463437e-02]
   [-3.37535441e-02  2.29572859e-02  9.53429670e-04 ...  1.61416605e-02
    -7.70109100e-03 -3.56889367e-02]
   [-2.36288141e-02  5.23607396e-02  2.94058211e-03 ...  1.33860093e-02
     1.10125551e-02  5.12697212e-02]]]


 [[[-1.56845264e-02  2.70365328e-02  2.76587587e-02 ... -1.04224440e-02
    -7.88398925e-03  3.10820583e-02]
   [-5.61882835e-03  2.53395760e-03 -1.87975671e-02 ... -9.46879096e-04
     1.32909482e-02 -1.13821542e-03]
   [ 1.50697716e-02  1.39211165e-02  3.63873057e-02 ... -1.93935391e-02
    -2.17016041e-02 -5.22750290e-03]
   ...
   [ 3.22634839e-02  1.91244613e-02  1.04524922e-02 ...  4.73598158e-03
    -1.37254586e-02 -2.93655670e-03]
   [-2.34210175e-02 -1.48667796e-02 -1.52668338e-02 ...  1.79418139e-02
    -5.19318832e-03  8.53320956e-03]
   [ 1.90960988e-02  1.04621528e-02 -1.34229846e-02 ... -2.02873666e-02
     1.86141431e-02  3.52411009e-02]]

  [[ 1.36009548e-02  6.48867339e-03 -9.26421024e-03 ... -1.79441255e-02
    -3.97158153e-02 -1.39820045e-02]
   [-4.52165902e-02  4.28400114e-02 -1.01032704e-02 ... -4.12205979e-02
     6.56397827e-03  4.31433171e-02]
   [-4.84667495e-02  1.64456945e-03  1.26436502e-02 ... -4.85228673e-02
     5.66724641e-03 -3.12976688e-02]
   ...
   [-2.59572100e-02  8.86943750e-03  4.86165881e-02 ...  4.89816582e-03
    -7.78859062e-03 -3.69871408e-03]
   [ 2.03220528e-02 -1.39450431e-02 -2.03101747e-02 ...  3.61008942e-02
    -2.05260776e-02  2.13282146e-02]
   [-1.17359292e-02  5.33349477e-02  1.31399753e-02 ... -4.42223251e-02
     4.22400273e-02  3.94470654e-02]]

  [[ 2.59664543e-02  9.08237137e-03  4.57009338e-02 ...  2.46911589e-02
    -9.97835072e-04  2.11965591e-02]
   [-1.31147802e-02 -1.43427756e-02  1.49324024e-02 ... -2.90381238e-02
     4.59192460e-03  3.80003918e-03]
   [-2.28397101e-02  3.21330689e-02  1.45849176e-02 ... -3.40287462e-02
     2.11980846e-02 -9.29023372e-04]
   ...
   [ 2.13115811e-02  2.58972738e-02 -7.95748457e-03 ...  4.00875099e-02
    -3.32887247e-02  1.24135043e-03]
   [ 3.39744501e-02 -2.00810395e-02  2.43714894e-03 ... -1.09230857e-02
     5.81757724e-02 -1.07267471e-02]
   [ 2.88943797e-02 -1.25675770e-02  2.96084583e-03 ...  2.32365709e-02
     3.95444185e-02  1.38868829e-02]]]]"
/model_weights/bn2a_branch1/bn2a_branch1/beta:0,"[-0.33776602  0.12615675  0.19944306 -0.1716351   0.4533173  -0.37146676
  0.3507972  -0.6156063  -0.45640126 -0.651953    0.13216378 -0.34895676
  0.3946087   0.06392012  0.8972857   0.08241225  0.0198095   0.31815663
  0.70900726 -0.18230397 -0.62618804  0.37605548 -0.02952561  0.4418777
 -0.19542982  0.09433385  0.33050644 -0.13517207  0.45767316  0.2820953
  0.07845367 -0.45107192  0.77661175  1.1773977   0.5170832   0.42521408
  1.1414077   0.7812745   0.01785338  0.19656867  0.3665932   0.08373013
  0.01751299  0.84867465  0.20907512  0.5219266   0.14748247  0.32584003
  0.8293409  -0.13186756 -0.52663225 -0.61166877  0.19557244 -0.07308385
 -0.09703267  0.20348218  0.46678284 -0.26835835 -0.3726598   0.04530054
  0.08239563 -0.09948689  0.12987058 -0.10516329  0.33856425  0.24637772
 -0.01770069  0.24566749 -0.26580444  0.3204608   0.55587524 -0.11361982
 -0.59116626  1.1261574   0.01748321 -0.42837885  0.45044303 -0.0284953
 -0.4148275   0.06298857  0.05893409 -0.03431319 -0.09541421  0.01885121
  0.02963102  0.06767264  0.17661332  0.26005134  0.5770317  -0.18268597
  0.6676916   0.684105    1.0570922   0.30108345 -0.20646651 -0.29686984
  0.1377807  -0.13444354  0.01514973 -0.2834698   0.6655605  -0.08193224
 -0.38598457  0.091799   -0.13544051 -1.1255037  -0.0839999  -0.02779822
  0.37935573  0.07811338 -0.4879988   0.5195105   0.63961416 -0.5039086
 -0.00534014  0.11425966  0.6320621  -0.3484617  -0.06633943  0.17078015
  0.09649169 -0.03925744 -0.21611147  0.6154431   0.5138401  -0.23031066
  0.3057457   0.10957688  0.29702127  0.19649507  0.05045092  0.2374122
  1.5218191   0.48439404 -0.3633807   0.44401276  0.93479335  0.1328432
 -0.00404521 -0.05339533 -0.36010262 -0.07820851 -0.05917747  0.26170105
  1.1864918   0.34185666  0.07264139 -1.0854572  -0.3844089  -0.9231427
  0.07381805 -0.10372861  0.19829443  0.06456219  0.58773065 -0.14364329
 -0.2187162  -0.5024145   0.5422039   0.7065563  -0.04742996  0.7835092
  0.3626748   0.5182058   0.25679028  0.2585961   0.34064034  0.8671756
  0.2848959   0.47443447  0.14543143  0.24868114 -0.02411427  1.1584349
  0.1832679   0.38404083  0.69119143  0.8807699   0.1075156   0.10326956
  0.042974    0.13334368 -0.17981583 -0.704641    0.9713115   1.0888851
  0.6078019   0.7833605  -0.9692735   0.4821964  -0.7885131   0.17444617
  0.4307793   0.65383303 -0.35826936  0.07097482  0.05182123  0.17116554
 -0.19385053 -0.02004419  0.13434884  0.59177816 -0.2522367  -0.28186765
 -0.34396628  0.08979373  0.2338179   0.33116388 -0.27430215  0.16427524
 -0.67180043 -0.16706489 -0.36124125 -0.12224996  0.16480644  0.1793148
 -0.3012241   0.01529045  0.5537268   0.43378848  0.22494172 -0.00994864
 -0.1249867  -1.0022186   0.05279749 -0.11249175  0.06596446  0.04962928
  0.5026077  -0.35840508  0.3274174   0.32459405 -0.5521673  -0.39412892
 -0.31920418  1.121907    0.57999706 -0.13374016  0.18583152 -0.09607993
  0.09708418 -0.20979106 -0.10274383 -0.39051515 -0.00558451  0.71774286
  0.06541162 -0.20772342 -0.25844613  0.40553972 -0.4428234  -0.2508654
 -0.04780686  0.134796    0.5153438  -0.4875092 ]"
/model_weights/bn2a_branch1/bn2a_branch1/gamma:0,"[0.30266267 1.1064363  1.773862   0.811504   1.0933665  0.5193547
 1.1497511  1.2638429  0.6597975  0.6021567  1.8934736  0.25866526
 1.562521   2.0406177  2.074913   1.196266   1.2161999  1.9050262
 1.6751405  0.22440645 0.39919332 2.0651433  1.6522937  2.9193757
 1.9418293  1.4083325  1.4893819  0.8290656  1.9990014  1.004287
 2.49245    0.5241019  1.4601065  0.98489743 1.1749334  2.4654102
 1.4746454  2.237747   1.6897892  0.643158   1.7642539  1.5344535
 1.556725   1.8742248  0.89751107 1.8766742  1.5036557  1.1824307
 2.4898334  2.903095   0.31446534 1.0439752  1.125094   1.1678859
 2.8487256  2.3205566  2.1143007  0.9947506  0.6345071  1.7236179
 2.6843402  0.67790794 1.2864667  0.47584265 2.1831763  2.6927822
 2.1946783  1.5942383  1.0281595  1.6642392  1.2054238  0.90254146
 0.36056522 2.9249742  1.2836213  0.15803678 0.91487235 2.0417757
 1.7737482  2.1634514  1.8460149  0.45369172 0.9139675  2.5501604
 1.5846733  0.9585977  1.1033502  2.0453775  1.3449074  0.9161233
 1.6799767  1.87321    2.247045   1.4263006  0.5911295  0.9541164
 1.3437078  1.0240364  1.6123002  0.36342722 1.3341049  1.1393508
 1.1866574  2.8604755  1.0185015  1.601427   1.0206822  2.618116
 1.4321516  1.5656403  0.7337008  2.1446056  1.1684842  0.71154714
 1.8130273  0.95563895 1.9317648  0.46386236 0.69928795 1.1970373
 2.2530336  2.2992287  0.9317862  2.2367156  1.6613394  1.659741
 2.8956337  1.5680763  1.5216749  2.8281345  0.6446437  2.3074956
 2.3483236  0.7377092  0.00435272 1.8411707  3.0643754  1.4062848
 1.9232955  1.2025325  0.29314858 1.2543699  1.164841   1.1629965
 1.3350152  1.9241585  1.2911787  2.3131065  0.6308743  1.4041144
 1.4392073  0.8914847  2.2275324  0.6163896  1.3774217  2.4427333
 0.23882365 0.27707657 1.3697717  1.3006874  0.77617574 2.9201403
 1.7770705  1.0644602  2.4181626  2.5205562  1.6879101  2.319
 1.5751312  2.4521635  1.3965516  2.4049985  0.9852266  1.2208054
 0.9328129  1.5826926  2.185211   1.3569021  1.4234494  2.0053306
 1.4770811  1.2077438  0.5227931  0.5854137  1.7102048  1.3581132
 2.3512752  1.6028515  1.5954407  1.9512659  1.0363938  2.7261539
 1.4067407  1.6159191  0.89998305 1.3512512  0.96056646 1.1682392
 0.14724527 1.5218102  1.2690628  1.8185636  0.27372625 1.3474032
 1.7547905  1.7700866  1.9278555  1.6503333  1.1202002  1.6036078
 0.4943755  1.183432   0.43161163 1.2465909  2.5367372  1.323768
 0.11564087 1.4839617  1.3463428  1.7365383  1.769637   2.1583438
 1.9627512  2.120916   2.0596483  1.6655291  1.7315938  1.269645
 1.3174858  0.67181367 1.0619335  2.1656895  0.44349355 0.45666215
 0.3485924  2.3847947  1.3843126  1.7389656  2.3306036  1.5520328
 1.6201441  0.9309871  1.1830294  1.477974   1.5438842  2.582773
 2.7470822  1.0364038  0.6298169  1.6513927  0.3921736  0.47656253
 0.15219456 2.013541   2.0589807  0.6931174 ]"
/model_weights/bn2a_branch1/bn2a_branch1/moving_mean:0,"[-1.56780049e-01  9.49894130e-01 -1.85008574e+00 -6.38725758e-01
 -1.42508292e+00  5.10891140e-01  9.82092500e-01 -4.42131013e-01
  1.12964284e+00  4.35538322e-01  8.08801651e-02 -4.02749926e-02
 -1.05908799e+00  9.92499828e-01 -5.91644049e-01 -2.49405190e-01
 -2.13778466e-01 -4.88102913e-01 -1.66405916e+00  1.98535189e-01
  5.01620650e-01 -6.37293458e-01 -9.46845174e-01 -8.43844116e-02
 -1.15020478e+00 -9.09330249e-01 -2.11438131e+00 -6.46091938e-01
 -1.17437553e+00 -2.72500706e+00 -2.11367416e+00 -1.20565305e-02
 -2.78238177e+00  3.02861500e+00  9.50315893e-01 -1.59355426e+00
  9.71451664e+00 -1.76573336e+00  3.12552273e-01 -4.65494484e-01
 -2.38057137e+00 -1.61895111e-01 -1.64445174e+00 -1.75129247e+00
  6.54313326e-01  8.04291144e-02 -1.09154367e+00 -3.32596517e+00
  9.58550751e-01 -3.42879725e+00  5.33585668e-01  9.74547386e-01
 -4.23819385e-02  4.58560437e-02 -3.34236860e+00  3.93090099e-01
 -3.77632827e-01  6.44124329e-01  1.32982600e+00 -1.77889132e+00
 -3.40172696e+00 -6.96621656e-01 -5.33910573e-01 -9.23865557e-01
  1.63570754e-02 -6.86002433e-01 -6.04160368e-01  3.13457757e-01
 -9.70262825e-01 -4.69917774e-01  2.11830282e+00 -6.96720362e-01
 -3.87450820e-03 -1.73313171e-01 -1.23229779e-01  4.56855029e-01
  2.54920530e+00 -2.17327142e+00 -1.44463646e+00 -1.82755208e+00
 -6.39146447e-01  5.48135996e-01 -1.71075061e-01 -1.72401929e+00
  1.63120377e+00 -5.71743429e-01 -3.98695588e-01 -1.60489988e+00
 -1.31405723e+00 -5.16497135e-01  1.23496211e+00 -8.58844399e-01
  5.12966394e-01 -8.82094622e-01  8.53425115e-02 -7.03925014e-01
  9.70400453e-01 -1.38252151e+00 -1.45868003e+00 -1.74799904e-01
  9.70981896e-01 -9.74026203e-01 -4.01680648e-01 -4.17319250e+00
 -9.79403138e-01 -3.97091478e-01  6.63226843e-01 -7.49742329e-01
  8.61571670e-01  2.16926306e-01 -1.31837368e+00 -1.49999356e+00
 -1.78394318e+00  5.33788912e-02  2.22857110e-02 -6.90433085e-01
 -2.35251236e+00 -9.58439037e-02 -3.51453811e-01 -8.87800753e-02
 -2.38839090e-01 -4.80678618e-01 -8.21348846e-01  2.43187547e+00
  3.86180818e-01 -2.87719011e-01 -3.00720716e+00 -1.20107248e-01
 -1.10309339e+00 -1.61668345e-01 -9.96246710e-02 -2.44135189e+00
 -1.28325951e+00  3.35854006e+00  8.00282657e-02 -6.64830351e+00
 -1.70622158e+00 -2.29751444e+00 -2.26832843e+00 -1.15742981e+00
 -9.58933607e-02 -1.87915242e+00 -4.65409318e-03  2.31175542e+00
 -3.67750669e+00 -5.12420988e+00 -3.71723652e-01  1.60421920e+00
  1.49675357e+00  8.42560947e-01 -1.25040829e+00 -6.01556599e-01
 -1.92310408e-01  3.87836158e-01  3.13830638e+00 -3.75278854e+00
 -2.91545391e-02 -3.82497698e-01 -1.87472701e+00  2.55753446e+00
  2.55688667e+00 -1.54375386e+00 -2.28343034e+00 -5.45059729e+00
 -1.77444488e-01 -1.89513397e+00 -1.24496233e+00  2.77777135e-01
  1.30749643e+00  4.44794863e-01 -1.59916103e+00 -1.07328005e-01
  2.92977124e-01  1.23896015e+00 -1.55352020e+00 -5.95513225e-01
  1.08479381e-01 -1.94143832e+00  6.13717079e-01 -1.47922957e+00
  4.93085027e-01  4.87797022e-01  1.01844323e+00 -3.99425775e-02
 -4.56259489e-01 -3.38438487e+00 -1.95900953e+00  9.08431053e-01
  4.61303025e-01 -1.07463968e+00  3.54877472e-01 -2.22616220e+00
 -1.00059283e+00  4.05958652e+00 -5.95364988e-01  2.63067693e-01
  8.91434431e-01 -2.04938745e+00 -1.04023194e+00 -6.95837915e-01
 -4.95703608e-01 -1.38652813e+00  5.58271050e-01 -1.03211725e+00
  1.29938662e+00  2.35909261e-02 -2.37379742e+00 -2.30583858e+00
 -1.13908541e+00 -2.38777971e+00 -2.69902358e-03 -1.45712018e+00
 -5.34536183e-01 -1.20612872e+00 -6.50973678e-01 -9.12709296e-01
  2.26354122e-01  2.10701972e-01 -2.58217788e+00 -3.66082728e-01
 -2.26513529e+00 -8.75445008e-01 -9.21046734e-01 -4.29868340e-01
 -9.06352520e-01 -2.98378897e+00 -1.88945377e+00  3.07909083e-02
 -6.92824066e-01  9.50227797e-01 -1.09862578e+00  1.31795302e-01
  2.84984767e-01 -1.23193014e+00 -5.12878060e-01 -1.89189065e+00
  1.99799943e+00 -1.04923689e+00 -7.38349199e-01 -1.11255038e+00
  3.40381920e-01 -1.09377491e+00 -1.07057452e+00 -1.08506489e+00
 -2.41038465e+00 -4.89076805e+00 -2.86314154e+00  8.49282146e-01
  1.21659470e+00 -2.37696245e-01 -2.88222404e-03  2.21736267e-01
 -1.58617884e-01  5.51711172e-02 -1.24015331e+00  3.30992848e-01]"
/model_weights/bn2a_branch1/bn2a_branch1/moving_variance:0,"[3.91762964e-02 3.02974761e-01 1.65826035e+00 2.14128554e-01
 5.48738956e-01 2.11171269e-01 7.87511349e-01 1.16050944e-01
 9.36751366e-02 4.20284569e-02 1.12578833e+00 1.27183571e-02
 6.65917873e-01 2.80782509e+00 4.95668697e+00 4.24835443e-01
 4.18400288e-01 9.56165612e-01 1.51854491e+00 1.85215473e-02
 2.18167007e-02 2.00023890e+00 4.85820353e-01 2.30696726e+00
 1.44919312e+00 7.71558642e-01 1.20979834e+00 1.81673437e-01
 1.90973866e+00 7.31214046e-01 1.66785526e+00 1.97947666e-05
 1.34882975e+00 1.34321117e+00 1.36400795e+00 5.56994820e+00
 7.32740784e+00 2.26095653e+00 6.08451784e-01 1.47541308e+00
 1.78262854e+00 5.15926242e-01 6.00994825e-01 1.98534417e+00
 5.16905904e-01 2.63628197e+00 7.31855512e-01 1.08767128e+00
 2.50679207e+00 2.18259716e+00 3.67588699e-02 2.72755682e-01
 5.28388143e-01 5.39334118e-01 3.20494556e+00 3.70075750e+00
 1.56272721e+00 1.65532261e-01 1.29854202e-01 4.78567839e-01
 2.74706364e+00 2.06182152e-01 9.73777056e-01 1.06283188e-01
 3.45809865e+00 5.93133831e+00 1.12930262e+00 9.72442150e-01
 1.90969944e-01 9.00181532e-01 6.53609753e-01 2.07621276e-01
 1.07279769e-03 4.86719465e+00 5.98616958e-01 2.54852176e-02
 8.51809978e-01 1.76009703e+00 3.42530966e-01 2.54495025e+00
 8.49158525e-01 1.40283436e-01 5.27546704e-01 1.76433206e+00
 7.42748022e-01 3.19667667e-01 4.16896373e-01 1.62322283e+00
 1.25773251e+00 3.07143509e-01 3.57032156e+00 1.17877686e+00
 2.35514140e+00 4.31634247e-01 5.84281906e-02 8.82430971e-02
 7.48672783e-01 6.83117151e-01 7.91558266e-01 4.72024940e-02
 1.48980498e+00 4.31246936e-01 1.67289808e-01 3.89215469e+00
 4.70693886e-01 1.60657585e-01 1.68681234e-01 1.46950102e+00
 4.75549698e-01 7.80566514e-01 6.22842312e-02 2.84286094e+00
 8.56528282e-01 2.82171518e-02 1.21054471e+00 3.04362267e-01
 3.49623346e+00 3.62667814e-02 2.26290375e-01 4.90679026e-01
 9.67292607e-01 8.73858809e-01 2.54150689e-01 1.22783518e+00
 4.45017546e-01 6.63757086e-01 2.74739361e+00 6.39889240e-01
 7.11445093e-01 6.10384178e+00 2.76057363e-01 1.79947472e+00
 2.23508620e+00 1.89519978e+00 1.02239335e-03 2.95819092e+00
 4.10401630e+00 1.06919289e+00 1.45228148e+00 6.13282442e-01
 3.86147238e-02 6.97726250e-01 4.46303070e-01 7.87596703e-01
 1.53632927e+00 8.38743210e-01 5.01337469e-01 6.04295015e-01
 1.57727957e-01 2.62883604e-01 8.26412439e-01 2.02621162e-01
 7.96527445e-01 2.08931595e-01 1.58543491e+00 1.24769020e+00
 8.33655000e-02 2.69518197e-02 1.04901719e+00 1.25609064e+00
 5.54289818e-01 2.72811007e+00 2.25468922e+00 1.77336884e+00
 3.62514210e+00 2.26250124e+00 1.04570115e+00 3.29398131e+00
 9.24645782e-01 2.48572230e+00 6.88439369e-01 4.88038969e+00
 4.55876738e-01 2.29012823e+00 8.16500902e-01 7.69970953e-01
 3.37296009e+00 1.32594967e+00 5.82383335e-01 2.76521802e+00
 2.94341803e-01 6.82414591e-01 6.97752237e-01 2.18458427e-03
 3.30828905e+00 1.68244839e+00 9.34757471e-01 1.24578452e+00
 1.69675127e-01 1.04931450e+00 9.97057855e-02 3.11602879e+00
 7.73952007e-01 2.12665939e+00 1.07560605e-01 5.78502715e-01
 6.50859475e-01 9.17154789e-01 7.17039108e-02 6.20840371e-01
 5.33236504e-01 1.06479096e+00 6.38834536e-02 2.94421077e-01
 1.47211158e+00 1.08380008e+00 1.86019850e+00 1.04871988e+00
 4.65515018e-01 6.39978409e-01 1.14248587e-06 5.42106390e-01
 7.53616393e-02 4.53575611e-01 2.27290201e+00 5.06543458e-01
 7.01414049e-03 6.80821002e-01 1.16938591e+00 8.56126249e-01
 1.45127630e+00 1.42637205e+00 1.31851339e+00 8.96367908e-01
 1.46356857e+00 1.25181198e+00 1.04577827e+00 5.76208711e-01
 4.07847732e-01 2.11571693e-01 7.36705780e-01 1.27157402e+00
 3.54958549e-02 1.02550983e-01 7.92123377e-02 2.44829249e+00
 2.53628564e+00 1.03993416e+00 4.23075771e+00 6.42138600e-01
 7.33306766e-01 2.33328342e-01 4.45152998e-01 2.73949385e-01
 7.46835709e-01 7.30787277e-01 2.37187004e+00 1.55059934e-01
 1.15713954e-01 8.00413728e-01 2.52378504e-06 6.93762004e-02
 3.23292241e-02 6.92814589e-01 3.17988396e+00 3.56801823e-02]"
/model_weights/bn2a_branch2a/bn2a_branch2a/beta:0,"[ 0.05472575 -0.7660225  -0.49627545 -1.6546004   3.607542   -1.1035595
  0.7390004   1.591533    0.00603206 -0.81592315  0.352889   -2.4108686
 -1.8582939  -0.13331875  1.4400946  -0.51417655 -0.7695926   0.82366425
  0.7177384  -0.19327487 -0.22199363  0.3972133  -0.04836961  0.55886424
  0.7368139   0.28886867 -0.58634347  0.47687387  0.61156493 -0.5672133
  3.0408201  -2.1317496   0.42963052  2.9959955   0.64089686 -0.7413931
  0.45223764 -1.0807114  -1.138965   -0.7522712   0.26396102 -0.19159535
 -1.4684712  -1.0147752   0.6941785   0.59444135  0.43276355 -1.1685327
  1.3403558   0.21174856 -1.4567611   0.23854338 -0.45183602 -0.5423524
  0.19878702 -0.846983   -0.29730833 -0.5456601  -0.5270155  -0.32582787
  2.822733   -0.7793737  -0.8232969   1.2435517 ]"
/model_weights/bn2a_branch2a/bn2a_branch2a/gamma:0,"[0.8936078  1.829929   1.5251175  1.0469114  1.5621641  0.8609115
 0.6987864  0.82268703 1.377614   0.8241747  0.50921756 1.5398988
 1.0734948  1.3239186  1.09454    1.5644029  1.7156625  0.5852563
 0.8809672  1.2959696  0.8929847  1.0942569  1.0552742  0.62727875
 0.8776286  1.2658294  1.1193624  1.1085742  0.81392187 1.8664137
 1.395749   1.5443345  0.9077587  1.363738   0.9251837  1.0218213
 1.2914065  1.1466671  1.8599358  1.5549297  1.0774082  1.4152335
 0.7451013  0.88940287 0.91650474 1.1225418  0.8384239  1.1264693
 0.7512038  1.3372405  1.4187883  1.2667569  1.6932937  1.9466939
 0.96127284 0.7484547  0.7275327  0.83472    1.7737253  1.2216108
 1.3842312  1.8241726  2.0660872  0.88329893]"
/model_weights/bn2a_branch2a/bn2a_branch2a/moving_mean:0,"[-3.5490766  -3.7020297  -2.216987    1.0298411  -3.9731808   0.97165555
 -1.5325711  -3.3439865  -2.198076    0.8675586   0.8656638   0.6097809
 -0.51029974 -4.1068296   7.6155515  -3.3018904  -2.5170588   0.7932738
 -2.7929027  -1.4857776   1.5868528  -1.9317781  -1.1375127   1.2705283
 -3.4849458  -1.3691797  -2.1329055  -1.9255291  -2.6256158  -4.418687
 -1.375388   -0.68178815 -2.4623291  -1.0244098  -1.5795602  -1.100949
 -2.0632718  -0.3056606  -2.5454628  -2.3757486  -2.7113826  -2.1351287
 -0.27652705  1.2477717  -3.1548584  -2.38359    -1.831865   -0.6205234
 -2.2485628  -1.779657    0.48011622 -2.376043   -2.3841352  -2.85093
 -3.989136    0.44579405  0.5952575   0.43407223 -2.6874247  -2.5526266
 -3.189832   -2.9069026  -4.624998    4.6313705 ]"
/model_weights/bn2a_branch2a/bn2a_branch2a/moving_variance:0,"[0.8219538  2.4670668  1.7895107  0.15378249 8.771975   0.18242162
 0.35772324 1.1146278  1.7507315  0.20122617 0.30190426 0.6291808
 0.18558681 1.6748085  4.2608604  2.196866   1.8982072  0.22502077
 0.70767117 1.2890713  0.5463178  1.1335642  0.64390993 0.32813573
 0.8885336  1.2810295  0.48626184 0.9573715  0.64620733 2.6938171
 4.3813887  0.7547914  0.7508569  4.7838593  0.76555777 0.6089877
 1.4742575  0.44020578 1.8925958  0.7658477  0.80752087 1.289084
 0.05220366 0.24163985 0.8909607  0.99636984 0.6435878  0.5254444
 0.67109346 1.4518285  1.0001792  1.6405902  2.0116258  2.2806597
 0.7618122  0.10851683 0.26704606 0.30454302 1.8365798  0.9762578
 4.879469   2.148965   3.2888165  1.4055748 ]"
/model_weights/bn2a_branch2b/bn2a_branch2b/beta:0,"[-1.1443895   1.4255049   0.79733497  2.2008705  -1.5390351  -1.733435
  0.93402404 -0.3272163   0.1677143  -0.24646108 -0.66187376  3.8389332
  1.4696416   1.7498447   0.83043987  2.8448203   0.86160606 -0.20486797
  0.8706872  -0.92127484  5.9125686  -0.9334907   1.402511   -1.02369
  1.8684889  -1.5758458   0.63201356 -0.19636747  0.6840903   0.5611841
  0.65492594  2.1862223  -0.70494246 -0.10141353 -2.2855132  -0.9146854
 -0.24442929  0.58135283 -0.95917314 -0.64661545  0.27712634 -0.28996584
  1.0886204  -0.47369415  1.4975215  -0.23227938  0.39023784 -0.02798549
  0.48415735  1.2428633   1.4319359   2.3747938   1.2849805  -0.7462433
  3.5321777   0.5058042  -0.2854287   0.71387976 -1.9975884   0.5980487
 -1.5865166   0.6006047   0.19440427  1.4372238 ]"
/model_weights/bn2a_branch2b/bn2a_branch2b/gamma:0,"[1.0477029  0.52706754 0.5242003  1.2800384  0.92997175 0.9219869
 0.8656955  0.6905698  0.50225025 0.56418616 0.7460809  1.6409398
 0.86589575 0.5676982  0.6709347  1.3171308  0.42042634 0.6986105
 0.63758266 0.63564056 2.5295343  0.7400575  0.5628353  1.0468217
 0.96637416 1.1250942  0.8053751  0.54806954 0.6514814  0.8526369
 0.7962548  0.72835636 0.88688236 0.516987   1.2246747  0.9817791
 0.7122313  0.86332834 0.98984283 0.65769416 0.93962216 0.6031216
 0.8432397  0.52637005 0.6440432  0.8226215  0.48448384 0.4951161
 0.8479121  0.609819   0.5619352  1.2573724  0.49481252 1.1496898
 1.4845177  1.1302116  0.8283367  0.5769943  0.9901735  1.0863926
 0.9547279  0.7113627  0.69423366 0.5004424 ]"
/model_weights/bn2a_branch2b/bn2a_branch2b/moving_mean:0,"[ 0.5386515   1.5082381   0.6409072  -2.629139    0.29550466 -1.310587
  1.6724118  -1.3805906   0.5974258  -0.67041695  0.21585397  1.8339865
  0.9789281  -1.5329422   2.99842     1.5663941   1.007502    0.22426154
  1.0640757   0.15639275  0.89547646  0.5448631  -0.4721524   0.76873535
 -1.8294723  -3.2052815  -0.430365    0.03938229  0.09359903 -1.3094821
 -0.30084905  0.1640601  -2.0360224   1.4639678   0.08421091  0.24295047
  0.02556451  1.0181029  -0.4886611   0.7485062   2.5676756  -0.00886796
  1.3962694   0.39600018 -1.2320665   0.69114625  0.06296433  0.61813706
  1.3603227   1.1266141  -0.90838945  1.1640801   0.20697545 -4.011371
 -1.7317117   1.5169412  -0.9180041  -1.0777438  -1.3797536   1.3915403
  0.22031619  1.0211643  -1.2582593   1.7387546 ]"
/model_weights/bn2a_branch2b/bn2a_branch2b/moving_variance:0,"[ 0.40327227  0.7504604   0.37025785  2.6485634   0.14771372  0.22560191
  1.0204      0.18733442  0.5346282   0.1994431   0.19154257  9.42198
  0.83337     0.86754537  0.5646782   6.3614874   0.49361193  0.58258486
  0.5164648   0.1223563  21.474213    0.13217822  0.29485068  0.48221827
  1.1079032   0.43042278  1.036778    0.26330525  0.7221538   1.565758
  0.8746056   1.1925576   0.42976856  0.275836    0.18069507  0.4522239
  0.3669629   2.4038029   0.48252285  0.17359847  2.642116    0.33738613
  1.2818888   0.17736693  0.73388517  1.0709679   0.46947473  0.2511136
  2.4817631   0.8751091   0.48704547  2.9478521   0.60668164  1.1942902
  7.0883546   4.4350357   0.74807614  0.5127076   0.21687353  4.1961393
  0.15015186  1.5864643   0.91407156  0.5301497 ]"
/model_weights/bn2a_branch2c/bn2a_branch2c/beta:0,"[-0.33776602  0.12615675  0.19944306 -0.1716351   0.4533173  -0.37146676
  0.3507972  -0.6156063  -0.45640126 -0.651953    0.13216378 -0.34895676
  0.3946087   0.06392012  0.8972857   0.08241225  0.0198095   0.31815663
  0.70900726 -0.18230397 -0.62618804  0.37605548 -0.02952561  0.4418777
 -0.19542982  0.09433385  0.33050644 -0.13517207  0.45767316  0.2820953
  0.07845367 -0.45107192  0.77661175  1.1773977   0.5170832   0.42521408
  1.1414077   0.7812745   0.01785338  0.19656867  0.3665932   0.08373013
  0.01751299  0.84867465  0.20907512  0.5219266   0.14748247  0.32584003
  0.8293409  -0.13186756 -0.52663225 -0.61166877  0.19557244 -0.07308385
 -0.09703267  0.20348218  0.46678284 -0.26835835 -0.3726598   0.04530054
  0.08239563 -0.09948689  0.12987058 -0.10516329  0.33856425  0.24637772
 -0.01770069  0.24566749 -0.26580444  0.3204608   0.55587524 -0.11361982
 -0.59116626  1.1261574   0.01748321 -0.42837885  0.45044303 -0.0284953
 -0.4148275   0.06298857  0.05893409 -0.03431319 -0.09541421  0.01885121
  0.02963102  0.06767264  0.17661332  0.26005134  0.5770317  -0.18268597
  0.6676916   0.684105    1.0570922   0.30108345 -0.20646651 -0.29686984
  0.1377807  -0.13444354  0.01514973 -0.2834698   0.6655605  -0.08193224
 -0.38598457  0.091799   -0.13544051 -1.1255037  -0.0839999  -0.02779822
  0.37935573  0.07811338 -0.4879988   0.5195105   0.63961416 -0.5039086
 -0.00534014  0.11425966  0.6320621  -0.3484617  -0.06633943  0.17078015
  0.09649169 -0.03925744 -0.21611147  0.6154431   0.5138401  -0.23031066
  0.3057457   0.10957688  0.29702127  0.19649507  0.05045092  0.2374122
  1.5218191   0.48439404 -0.3633807   0.44401276  0.93479335  0.1328432
 -0.00404521 -0.05339533 -0.36010262 -0.07820851 -0.05917747  0.26170105
  1.1864918   0.34185666  0.07264139 -1.0854572  -0.3844089  -0.9231427
  0.07381805 -0.10372861  0.19829443  0.06456219  0.58773065 -0.14364329
 -0.2187162  -0.5024145   0.5422039   0.7065563  -0.04742996  0.7835092
  0.3626748   0.5182058   0.25679028  0.2585961   0.34064034  0.8671756
  0.2848959   0.47443447  0.14543143  0.24868114 -0.02411427  1.1584349
  0.1832679   0.38404083  0.69119143  0.8807699   0.1075156   0.10326956
  0.042974    0.13334368 -0.17981583 -0.704641    0.9713115   1.0888851
  0.6078019   0.7833605  -0.9692735   0.4821964  -0.7885131   0.17444617
  0.4307793   0.65383303 -0.35826936  0.07097482  0.05182123  0.17116554
 -0.19385053 -0.02004419  0.13434884  0.59177816 -0.2522367  -0.28186765
 -0.34396628  0.08979373  0.2338179   0.33116388 -0.27430215  0.16427524
 -0.67180043 -0.16706489 -0.36124125 -0.12224996  0.16480644  0.1793148
 -0.3012241   0.01529045  0.5537268   0.43378848  0.22494172 -0.00994864
 -0.1249867  -1.0022186   0.05279749 -0.11249175  0.06596446  0.04962928
  0.5026077  -0.35840508  0.3274174   0.32459405 -0.5521673  -0.39412892
 -0.31920418  1.121907    0.57999706 -0.13374016  0.18583152 -0.09607993
  0.09708418 -0.20979106 -0.10274383 -0.39051515 -0.00558451  0.71774286
  0.06541162 -0.20772342 -0.25844613  0.40553972 -0.4428234  -0.2508654
 -0.04780686  0.134796    0.5153438  -0.4875092 ]"
/model_weights/bn2a_branch2c/bn2a_branch2c/gamma:0,"[0.70080197 0.9437353  1.564336   0.8073131  1.0737958  0.85536605
 1.163922   0.5606476  0.8228656  0.29138932 1.5830489  0.28735876
 1.3810582  1.984504   1.1960918  1.0335759  1.0541695  1.6154554
 1.6252569  0.33399415 0.50142324 1.6758621  1.241043   2.777015
 1.2601506  1.1257584  1.4293664  0.55951774 1.8533903  0.6888628
 2.2312617  0.45788968 1.3084005  0.53306866 0.42684057 2.6347518
 0.16557072 1.6756117  1.4359066  1.0214962  1.2549384  1.4328066
 1.2083977  1.3458723  0.87263006 1.9621006  1.1602925  0.10035419
 2.3560827  1.711634   0.36933827 1.1142174  1.1176554  1.0735322
 1.7663448  2.2026267  2.1595564  1.0584669  1.0485783  1.4185191
 1.8752613  1.186239   1.7099243  0.11367637 1.5569959  2.6285794
 1.9737927  1.5756879  0.69128674 1.3593884  1.2350571  0.63672954
 0.49675813 2.402119   1.1368856  0.6597317  0.96602744 0.901377
 0.6926412  1.1507474  1.4644371  0.4556414  1.4629718  1.9763952
 1.4722935  0.7986025  0.73955613 1.5561203  1.7743387  0.5738867
 0.6054021  1.7942402  2.023701   1.1164769  0.46085975 0.6083302
 1.0759428  0.85965496 1.4522598  0.09080357 1.8988267  0.18111695
 0.8332517  2.5714285  0.83929205 0.71283716 0.91595864 2.4061363
 1.1438974  1.3808477  0.7010312  1.8457681  0.8866386  1.1180664
 1.6715821  1.0073898  1.4708407  0.79938346 0.9024001  1.0035723
 1.7882618  1.7252326  0.6316183  1.9307667  1.4719998  1.3707744
 2.5285504  1.1825914  1.239196   2.8199549  0.58502483 1.9427096
 1.9777459  0.3510626  0.6185313  0.26704073 2.5216465  1.5227054
 1.1291901  0.957596   1.0034287  0.8324348  0.9831282  1.2380307
 1.1758124  1.525554   1.1262071  0.28376046 0.940989   0.6859519
 1.2500532  0.748239   1.5389996  0.62518865 1.2657459  1.3465538
 0.63627994 0.4367714  1.2593415  1.4489347  1.2431439  2.50765
 1.6490186  0.805998   2.390589   2.2908912  1.1532965  1.8256359
 1.3536024  2.231553   1.3323449  2.252494   0.931236   0.2687175
 0.08607779 1.1586256  1.8898149  1.1556516  1.1013138  2.217
 1.0662568  1.105188   1.4059935  0.3807538  1.0828922  1.6473494
 2.0252123  1.4162239  0.57687336 1.7011654  0.50696504 2.25662
 1.105725   1.3093822  0.5797053  1.1175921  0.9767993  1.5962949
 0.8675053  1.3678032  1.0988948  1.7549633  0.59704554 0.6765283
 0.01100304 1.5192804  1.7923056  1.18298    0.9462593  1.2094843
 0.42016283 0.91356546 1.6004201  0.9535821  2.3767698  1.0122596
 0.15651298 1.220476   0.7883978  1.2889603  1.6779294  1.7129111
 1.8008882  0.31643897 1.6048399  0.20051159 1.5838351  1.0614172
 1.1527178  0.8473886  0.66907007 2.114909   0.44767344 0.45980397
 1.6075926  2.2430818  1.847195   1.5492157  2.3820426  1.3323201
 1.3334863  0.8393454  1.3211987  0.67453283 1.137289   2.1794903
 2.0168817  0.76683617 1.0005093  1.1709284  0.4329348  0.43746242
 0.27969617 1.8962228  1.1490586  0.17653568]"
/model_weights/bn2a_branch2c/bn2a_branch2c/moving_mean:0,"[ 1.53386340e-01  7.78129846e-02 -1.06876564e+00  7.09951818e-01
 -8.83213580e-01 -2.29465351e-01 -6.66873097e-01  1.34079888e-01
  1.57332718e-01  1.00609884e-02 -9.11735117e-01 -3.05942874e-02
 -1.36498833e+00  8.31325769e-01 -9.39306021e-01 -6.84227526e-01
 -2.78446138e-01  8.12437713e-01 -1.14586818e+00 -1.72285199e-01
  1.49163947e-01  7.71658063e-01  3.07759166e-01 -8.41971338e-01
 -4.72318888e-01 -3.52492392e-01  1.03103447e+00  3.81127596e-01
  1.71286237e+00 -3.23988140e-01  1.35178018e+00  3.40978033e-03
 -1.29824662e+00 -6.67615771e-01  7.28044271e-01  4.28265333e-01
  4.85541791e-01  9.14080143e-01 -3.08853596e-01 -1.31330907e+00
  1.60992432e+00 -7.88346708e-01 -7.86554873e-01  7.48739958e-01
  6.41104758e-01  2.66254619e-02 -1.00199223e+00 -2.03740418e-01
 -7.49523938e-01  4.01914090e-01  1.58217564e-01  2.89305121e-01
  1.14893782e+00 -6.00728452e-01 -6.45809650e-01 -3.71363014e-02
 -4.85029131e-01 -1.66946769e-01  3.45846415e-01 -4.95096058e-01
 -1.59263968e+00 -3.16642165e-01  2.44368792e-01  2.37664692e-02
 -1.46155894e+00 -1.51474595e+00 -4.42833364e-01  1.74795544e+00
  2.43536249e-01 -9.48428273e-01 -1.13926351e-01  2.90018748e-02
 -3.50834206e-02 -7.52864242e-01 -5.42735755e-01  1.85491592e-01
  4.54867452e-01  9.63420868e-01 -2.77963489e-01  1.01407313e+00
  1.40263572e-01  4.92303669e-01  3.04115325e-01  5.08139729e-01
  3.80370859e-03 -5.61547637e-01  2.49168575e-01 -5.42200446e-01
 -4.48128730e-01  7.78248608e-01 -4.48912591e-01  3.67010772e-01
 -9.18344736e-01 -4.59937602e-02  2.31950477e-01 -3.35810594e-02
 -1.18787766e-01  5.70764780e-01  4.93925750e-01 -1.05088502e-01
 -7.56409466e-02  1.55986547e-01 -1.47005925e-02  6.93976507e-02
 -2.25554109e-01  1.41318604e-01 -5.54762065e-01  7.82280803e-01
 -8.02906677e-02 -6.18467093e-01 -1.86032683e-01  5.52366912e-01
 -1.35847360e-01 -4.30802666e-02  7.21044242e-01  3.67614955e-01
  1.78399050e+00 -4.89083864e-02 -5.35545945e-01  8.34993005e-01
  6.13357306e-01 -9.13897380e-02  1.85771778e-01 -1.23935115e+00
 -8.09693873e-01 -5.39064705e-02  1.49013877e-01 -1.02888867e-01
  1.44476563e-01  1.14423645e+00 -3.08334738e-01  1.07661879e+00
  8.04589212e-01 -9.40304697e-01  9.01391581e-02 -1.46740213e-01
  1.08232927e+00 -1.36561263e+00 -6.64491713e-01  3.72625947e-01
  2.08078668e-01 -1.85225263e-01 -2.13796571e-01  4.09676373e-01
 -2.00828457e+00  1.07010293e+00 -7.69645870e-01 -6.10802948e-01
  7.67620146e-01 -2.59109408e-01  1.21515460e-01  2.06278294e-01
 -2.33125046e-01  2.92647928e-01  5.54379761e-01  1.01638198e-01
 -1.34183079e-01  1.17072754e-01 -2.18611117e-02  1.09877884e+00
  7.04245508e-01  3.58456224e-01 -6.02778435e-01 -6.74651623e-01
 -1.03760719e+00  1.29196978e+00 -1.64946556e-01 -8.30284536e-01
  3.30232322e-01 -1.41465092e+00  1.09535372e+00 -5.44397891e-01
  6.86142385e-01 -4.48708773e-01  1.01348460e-01  4.71875042e-01
 -1.06828260e+00 -8.34379375e-01  8.47775489e-02  2.32818693e-01
 -1.81065500e-01  7.67745972e-01  9.59392011e-01  3.02338717e-03
  1.83712316e+00 -6.39633060e-01 -4.56411066e-03 -1.73344836e-01
  7.95513317e-02  6.23223007e-01  1.25448167e-01 -1.44593072e+00
  7.88438976e-01  8.42645228e-01  1.73677996e-01 -5.60234666e-01
 -2.37675533e-01  4.46400195e-01  3.90449256e-01  7.36706436e-01
  2.14774325e-01  1.79926133e+00  1.55018881e-01  1.16169117e-01
 -7.08636120e-02  4.90374565e-01  3.57344031e-01 -3.39791656e-01
 -2.42028087e-01  7.35594183e-02  1.13571971e-03  1.73643380e-02
 -2.31490374e-01  5.11425734e-01 -9.60510522e-02  5.22898972e-01
  4.64834459e-02 -5.47931254e-01 -1.07351136e+00 -3.27966034e-01
  2.75649279e-02 -9.02076721e-01  5.29486537e-01 -5.16156018e-01
 -5.14356852e-01 -9.03668478e-02  2.87293699e-02  8.95346701e-01
 -4.97061163e-01  6.99074939e-03 -4.38419610e-01 -1.58693516e+00
 -1.65138394e-01 -2.24643238e-02 -5.56302905e-01  6.47276223e-01
  7.05901742e-01  6.85615122e-01  9.61472571e-01  7.97368288e-01
 -7.17182815e-01  4.28760767e-01 -6.64770722e-01  2.22611859e-01
 -1.66649163e-01 -1.88710928e+00 -2.58727908e-01 -9.66337323e-02
  1.48217216e-01 -9.83782530e-01  9.10468458e-04 -9.29098576e-02
  1.25092134e-01 -2.86565214e-01 -9.57902968e-01 -4.35662866e-02]"
/model_weights/bn2a_branch2c/bn2a_branch2c/moving_variance:0,"[1.09656155e-02 8.55159014e-02 3.03216696e-01 4.52342033e-02
 1.90367162e-01 1.21125810e-01 1.75258040e-01 2.50854418e-02
 1.49230976e-02 5.02453325e-03 4.68735456e-01 1.93313090e-03
 2.68805146e-01 5.84669292e-01 2.01057100e+00 8.37414861e-02
 1.26213372e-01 2.78266013e-01 3.28262210e-01 6.46588951e-03
 8.38488340e-03 9.24540102e-01 1.66702807e-01 7.57499456e-01
 3.92585605e-01 1.38973862e-01 1.90990567e-01 3.11987251e-02
 5.55133820e-01 9.65237990e-02 5.38428068e-01 8.66833943e-06
 2.69104481e-01 4.50760394e-01 3.79163325e-01 1.26719403e+00
 3.24423015e-02 8.41591656e-01 3.04393351e-01 7.14158654e-01
 1.13674688e+00 1.43229008e-01 1.80179238e-01 6.30760491e-01
 1.33019060e-01 5.00501156e-01 2.45209932e-01 1.70026831e-02
 6.34158671e-01 2.77647823e-01 8.72338004e-03 4.22563255e-02
 2.07780957e-01 9.84885991e-02 3.61084282e-01 7.52030194e-01
 3.76055241e-01 7.31508136e-02 4.70235795e-02 1.39811456e-01
 5.78455210e-01 8.29818174e-02 2.28009135e-01 4.20636218e-03
 2.13696361e+00 1.19978237e+00 2.31914148e-01 2.25456238e-01
 3.71675678e-02 8.18588436e-01 1.85503036e-01 4.53506187e-02
 4.25043516e-04 1.67433381e+00 2.89907932e-01 1.73552446e-02
 1.82433233e-01 6.57994509e-01 4.68712449e-02 9.61473227e-01
 3.12295139e-01 5.72697371e-02 1.42866194e-01 4.60643917e-01
 1.61977321e-01 1.48513317e-01 6.08204082e-02 3.98238659e-01
 2.78589487e-01 7.81520009e-02 1.38833654e+00 2.39650995e-01
 7.54679382e-01 1.32854342e-01 1.67386085e-02 1.99898053e-02
 1.78896904e-01 1.21317834e-01 2.30662674e-01 3.35865840e-03
 4.04965013e-01 8.74252804e-03 3.10449600e-02 7.48763561e-01
 9.69604403e-02 3.09840720e-02 4.83519733e-02 3.08398783e-01
 2.45417640e-01 7.04020083e-01 3.10177766e-02 8.86166275e-01
 1.69626415e-01 8.31407122e-03 3.13740730e-01 1.24122217e-01
 2.05906653e+00 4.07529920e-02 1.16062820e-01 1.99064195e-01
 3.31711471e-01 1.62760615e-01 5.90338223e-02 1.39320362e+00
 3.51812065e-01 1.49655536e-01 7.39862800e-01 2.00741127e-01
 2.68998832e-01 1.35219431e+00 6.46025315e-02 6.34944201e-01
 9.42774773e-01 2.09324002e-01 2.90954560e-02 5.27417734e-02
 1.41038787e+00 2.80782580e-01 2.45136380e-01 1.59145504e-01
 4.00716364e-02 1.11474864e-01 1.10430762e-01 2.22024620e-01
 3.27880859e-01 4.19978738e-01 1.49382055e-01 1.22660398e-02
 4.23473120e-02 8.73188376e-02 1.67941734e-01 5.86088225e-02
 2.43320242e-01 8.28529671e-02 1.99547410e-01 1.84956431e-01
 5.72987534e-02 7.63811264e-03 2.68719792e-01 2.56579161e-01
 1.35935128e-01 9.99145925e-01 5.23451567e-01 1.17462486e-01
 8.34368229e-01 7.86666632e-01 2.41432309e-01 1.10105491e+00
 1.70838460e-01 7.68703222e-01 1.32841110e-01 9.68068242e-01
 8.13170969e-02 4.40176785e-01 1.52858589e-02 2.31811732e-01
 8.53882313e-01 4.41159606e-01 1.09476849e-01 4.96599704e-01
 1.39875367e-01 1.30227029e-01 7.13972926e-01 1.72087792e-04
 1.63432503e+00 3.32795620e-01 5.29088199e-01 2.98090637e-01
 2.53647342e-02 2.68276542e-01 2.73657516e-02 8.85148287e-01
 3.97289991e-01 3.31901014e-01 2.41153892e-02 1.08477324e-01
 1.18601158e-01 2.11934626e-01 9.58871692e-02 2.43787467e-01
 9.83427688e-02 3.23349953e-01 3.18081602e-02 5.93121164e-02
 1.73073541e-03 2.26148903e-01 4.93046969e-01 2.27966666e-01
 8.52018148e-02 2.17217460e-01 8.59587544e-07 1.19205080e-01
 8.43967646e-02 1.34743214e-01 5.56794107e-01 1.57688320e-01
 1.73143880e-03 1.89154863e-01 1.43576026e-01 1.56122908e-01
 3.06588829e-01 4.27692533e-01 3.43356609e-01 4.51613069e-02
 3.33477914e-01 2.95197181e-02 2.99895555e-01 1.39442921e-01
 1.32970661e-01 6.33753017e-02 1.15021333e-01 2.92983294e-01
 1.99551545e-02 5.16315131e-03 9.80212092e-02 6.25325680e-01
 5.42407572e-01 2.90849566e-01 9.18995678e-01 1.51910663e-01
 1.35031343e-01 4.89863008e-02 1.63951993e-01 7.04845414e-02
 1.51743382e-01 1.32321596e+00 5.22460341e-01 5.46865501e-02
 6.70617893e-02 2.52274215e-01 4.27145278e-06 2.35449038e-02
 2.68516969e-02 5.93144894e-01 1.56321681e+00 5.07219834e-03]"
/model_weights/bn2b_branch2a/bn2b_branch2a/beta:0,"[ 0.5973605   0.8252986   0.80734247 -0.31955707  0.57840514 -0.8152899
 -0.49099416  0.8440902  -1.2572345   0.01891136 -0.6090554   0.7904847
 -0.7863871   1.5778693  -1.1811912  -0.98405063 -1.1008271   1.0177433
 -0.8786941  -1.2829126   0.39211744  0.26217705 -0.42155993 -0.85625356
 -0.57894176  0.22728145 -1.1788567  -1.6880511  -1.126888    0.33829355
  0.67760193 -0.1239348  -1.1115144   0.635656   -0.5688724  -0.2772841
  0.9604326  -0.16699222 -0.69795495 -0.86857945 -0.6493787   0.00913605
 -0.75270104  0.81387043 -0.89591175  0.1769144   0.48604527  0.55234504
 -1.283643    0.0437633   0.20225282 -0.7826944  -0.35028508 -1.1088735
 -1.4951364   0.99596953  0.27069518 -0.55257386  0.3856899   0.3841504
 -0.33213052 -1.3128067   1.0923697  -1.1713051 ]"
/model_weights/bn2b_branch2a/bn2b_branch2a/gamma:0,"[1.0857642  0.92769194 1.0398799  1.2028147  0.9360627  1.6693656
 1.4769102  0.94768894 1.8154488  0.93658334 1.1806931  0.7690328
 1.104428   0.8997446  1.1222891  1.4162433  1.7883881  0.8859705
 1.224494   1.2987579  0.9251025  0.8193475  1.0948665  1.4505187
 1.1107539  1.0645725  1.9490302  1.6712662  1.0679641  0.8536926
 1.020519   1.0215747  1.536839   0.79945225 1.5550382  1.2211487
 0.8951935  1.0356722  1.4448725  1.210558   1.1955172  1.1222208
 1.4240181  0.8685856  1.4141248  0.90511155 0.94966537 0.754656
 1.1253889  0.93182296 1.0622287  1.517389   1.3850844  1.2023795
 1.2530388  0.8282521  1.1318113  1.483297   0.83655703 0.74619687
 1.2511034  1.4064742  1.004893   1.043402  ]"
/model_weights/bn2b_branch2a/bn2b_branch2a/moving_mean:0,"[ 0.18324831  0.33988953  0.163756   -0.5667171  -0.36560914  0.04773676
 -2.5127795   1.1115639   0.31567457 -0.09062772  0.3311457  -1.3292512
  0.332257   -1.6551064  -0.27534986  0.69260466  0.1386712  -1.5875486
 -0.7217129  -0.6148353   0.16015346  1.069797    0.26239005 -0.25150266
  0.27492124 -0.42029348  0.43115443  0.77205324 -0.8493644  -0.7607811
 -0.44933787 -0.8006449  -0.47044066 -0.26279485 -0.93653023 -0.07008591
 -0.40995193  0.1490434   0.86218596  0.0353377  -0.31562167 -0.5447416
 -0.32890266 -0.28650162 -0.66663563 -0.8124761  -0.8857179  -0.5824966
 -0.01071492 -0.01562803 -0.3476196  -0.05566483 -0.04448624  0.41921547
 -0.7390078   0.61156964 -0.6181106  -0.7034567  -0.6429765   0.3752226
 -0.32686687 -0.12049809  0.3062134   0.0586908 ]"
/model_weights/bn2b_branch2a/bn2b_branch2a/moving_variance:0,"[1.0600004  1.1363513  1.3199388  1.0075495  0.47933894 1.6096634
 0.44084597 0.62783635 1.8060662  0.7291071  0.49226773 0.68173933
 0.3377877  1.4311807  0.23547904 0.9361718  1.9166168  1.3450661
 0.41180933 0.3959156  0.8598625  1.4144297  0.65479094 1.056837
 0.43983513 0.5834708  2.167099   0.8884059  0.22949928 0.64822793
 1.6097457  0.82111466 0.81126606 0.7036031  1.2798492  1.0638664
 1.4061788  0.8682865  1.220319   0.5364477  0.8479629  0.89745283
 1.1149131  0.6436839  0.92100656 0.48014748 0.88563985 0.5715033
 0.22886011 0.5574084  1.4670957  1.214172   1.3483591  0.24272013
 0.31333798 0.60579926 1.739373   1.5692837  0.6058481  0.35198188
 0.9406074  0.67953795 1.3382906  0.23034872]"
/model_weights/bn2b_branch2b/bn2b_branch2b/beta:0,"[-1.1215963   2.1199968   0.6719117  -0.16435108 -0.6526032   1.4564904
  0.99838215  1.5645473   0.07114107  1.267898   -0.5887723  -0.48279145
 -1.192928   -0.11982686 -1.2284956   1.6148543   2.1214828  -0.02684018
 -0.9881234  -1.4356605  -0.3877223   0.07038961 -0.9230486  -0.4111335
  0.7622259  -0.6154822  -0.31803823  1.7814469   1.3952136  -0.17239518
 -0.02665623  0.00626587  0.09509598  0.62280935 -0.1881825  -1.8009884
  0.34075788 -1.0666939   2.048712    0.05140132  0.18053417 -0.40504298
